{"learner":{"attributes":{"best_iteration":"264","best_score":"0.39580107907985307","scikit_learn":"{\"_estimator_type\": \"regressor\"}"},"feature_names":["hour","day_of_week","is_weekend","car_number","lag_5min_congestion","lag_1hr_congestion","station_id_BR01","station_id_BR02","station_id_BR03","station_id_BR04","station_id_BR05","station_id_BR06","station_id_BR07","station_id_BR08","station_id_BR09","station_id_BR10","station_id_BR11","station_id_BR12","station_id_BR13","station_id_BR14","station_id_BR15","station_id_BR16","station_id_BR17","station_id_BR18","station_id_BR19","station_id_BR20","station_id_BR21","station_id_BR22","station_id_BR23","station_id_BR24","line_direction_cid_1","line_direction_cid_2"],"feature_types":["int","int","int","int","float","float","float","float","float","float","float","float","float","float","float","float","float","float","float","float","float","float","float","float","float","float","float","float","float","float","float","float"],"gradient_booster":{"model":{"gbtree_model_param":{"num_parallel_tree":"1","num_trees":"315"},"iteration_indptr":[0,1,2,3,4,5,6,7,8,9,10,11,12,13,14,15,16,17,18,19,20,21,22,23,24,25,26,27,28,29,30,31,32,33,34,35,36,37,38,39,40,41,42,43,44,45,46,47,48,49,50,51,52,53,54,55,56,57,58,59,60,61,62,63,64,65,66,67,68,69,70,71,72,73,74,75,76,77,78,79,80,81,82,83,84,85,86,87,88,89,90,91,92,93,94,95,96,97,98,99,100,101,102,103,104,105,106,107,108,109,110,111,112,113,114,115,116,117,118,119,120,121,122,123,124,125,126,127,128,129,130,131,132,133,134,135,136,137,138,139,140,141,142,143,144,145,146,147,148,149,150,151,152,153,154,155,156,157,158,159,160,161,162,163,164,165,166,167,168,169,170,171,172,173,174,175,176,177,178,179,180,181,182,183,184,185,186,187,188,189,190,191,192,193,194,195,196,197,198,199,200,201,202,203,204,205,206,207,208,209,210,211,212,213,214,215,216,217,218,219,220,221,222,223,224,225,226,227,228,229,230,231,232,233,234,235,236,237,238,239,240,241,242,243,244,245,246,247,248,249,250,251,252,253,254,255,256,257,258,259,260,261,262,263,264,265,266,267,268,269,270,271,272,273,274,275,276,277,278,279,280,281,282,283,284,285,286,287,288,289,290,291,292,293,294,295,296,297,298,299,300,301,302,303,304,305,306,307,308,309,310,311,312,313,314,315],"tree_info":[0,0,0,0,0,0,0,0,0,0,0,0,0,0,0,0,0,0,0,0,0,0,0,0,0,0,0,0,0,0,0,0,0,0,0,0,0,0,0,0,0,0,0,0,0,0,0,0,0,0,0,0,0,0,0,0,0,0,0,0,0,0,0,0,0,0,0,0,0,0,0,0,0,0,0,0,0,0,0,0,0,0,0,0,0,0,0,0,0,0,0,0,0,0,0,0,0,0,0,0,0,0,0,0,0,0,0,0,0,0,0,0,0,0,0,0,0,0,0,0,0,0,0,0,0,0,0,0,0,0,0,0,0,0,0,0,0,0,0,0,0,0,0,0,0,0,0,0,0,0,0,0,0,0,0,0,0,0,0,0,0,0,0,0,0,0,0,0,0,0,0,0,0,0,0,0,0,0,0,0,0,0,0,0,0,0,0,0,0,0,0,0,0,0,0,0,0,0,0,0,0,0,0,0,0,0,0,0,0,0,0,0,0,0,0,0,0,0,0,0,0,0,0,0,0,0,0,0,0,0,0,0,0,0,0,0,0,0,0,0,0,0,0,0,0,0,0,0,0,0,0,0,0,0,0,0,0,0,0,0,0,0,0,0,0,0,0,0,0,0,0,0,0,0,0,0,0,0,0,0,0,0,0,0,0,0,0,0,0,0,0,0,0,0,0,0,0,0,0,0,0,0,0,0,0,0,0,0,0,0,0,0,0,0,0],"trees":[{"base_weights":[2.4193562E-4,-1.4862703E-1,4.3804216E-1,-1.608251E-1,2.9686043E-1,3.1284702E-1,9.9419856E-1,-1.7218795E-1,3.027684E-1,1.1697417E-1,7.0265985E-1,1.3020176E-1,4.5333195E-1,3.494992E-1,1.0628446E0,-1.824948E-1,7.552512E-2,4.360326E-2,2.0305105E-1,4.7356656E-1,2.6982857E-2,2.937364E-1,7.016984E-2,1.4284499E-1,-1.3821672E-2,3.3733976E-1,8.146574E-1,4.006856E-1,-7.898099E-3,1.0747306E0,-7.898099E-3,8.325391E-3,-1.9429946E-1,-6.028243E-2,3.7671304E-1,-6.204605E-2,3.6244363E-1,-7.898099E-3,2.9317547E-2,2.2802537E-2,-1.5410254E-2,1.6734189E-1,4.21019E-2,2.1170877E-1,7.7169225E-2,2.9166865E-1,7.3671305E-1,8.8290834E-1,9.856656E-2,2.747343E-1,2.7363045E-2,1.0903561E0,1.2271738E-1,-2.7200844E-2,4.7356656E-1,-2.0515165E-1,-1.7677035E-2,8.854703E-3,-2.3367868E-1,1.2175628E-1,5.074612E-2,-1.1847148E-2,-7.6436484E-3,3.68365E-2,2.4389079E-1,-1.031318E-2,9.987227E-2,-1.0530798E-2,1.3736715E-2,1.577619E-1,3.239688E-1,3.5598308E-2,2.9987228E-1,1.865834E-1,4.198773E-1,5.5453175E-1,4.31112E-2,8.997933E-1,-7.898099E-3,7.888975E-3,-7.898099E-3,3.4856656E-1,-7.898099E-3,1.1142209E0,3.4726086E-1,-7.898099E-3,1.7101903E-2,-2.7685114E-3,2.7363045E-2,7.3630433E-3,3.8152855E-2,-1.0730971E-2,8.5803494E-4,-2.0002753E-3,1.5031831E-2,-2.6380217E-3,4.5258147E-3,-2.6369572E-3,-1.4479848E-2,1.1836503E-2,3.189246E-3,2.18682E-3,-1.0530798E-2,2.7363045E-2,7.3035927E-3,8.495819E-3,-1.3216719E-3,1.3063677E-2,4.8666964E-3,1.7512267E-2,6.5285264E-4,3.29295E-4,1.0191066E-2,-7.898099E-3,1.661413E-2,1.797592E-2,5.8059595E-3,1.9211847E-2,7.2802536E-2,1.1836503E-2,3.6178328E-2,4.7800407E-2,2.718682E-2,2.5652854E-2,7.3630433E-3,5.6687262E-2,3.6178328E-2,6.5285264E-4,4.21019E-2],"categories":[],"categories_nodes":[],"categories_segments":[],"categories_sizes":[],"default_left":[0,0,0,0,0,0,0,0,0,0,0,0,0,0,0,0,0,0,0,0,0,0,0,0,0,0,0,0,0,0,0,0,0,0,0,0,0,0,0,0,0,0,0,0,0,0,0,0,0,0,0,0,0,0,0,0,0,0,0,0,0,0,0,0,0,0,0,0,0,0,0,0,0,0,0,0,0,0,0,0,0,0,0,0,0,0,0,0,0,0,0,0,0,0,0,0,0,0,0,0,0,0,0,0,0,0,0,0,0,0,0,0,0,0,0,0,0,0,0,0,0,0,0,0,0,0,0,0,0],"id":0,"left_children":[1,3,5,7,9,11,13,15,17,19,21,23,25,27,29,31,33,-1,35,37,39,41,-1,43,-1,45,47,49,-1,51,-1,53,55,57,59,61,63,-1,-1,-1,65,67,-1,69,71,73,75,77,79,81,-1,83,85,87,89,91,93,95,97,99,-1,-1,101,-1,103,-1,105,-1,-1,107,109,111,113,115,117,119,-1,121,-1,-1,-1,123,-1,125,127,-1,-1,-1,-1,-1,-1,-1,-1,-1,-1,-1,-1,-1,-1,-1,-1,-1,-1,-1,-1,-1,-1,-1,-1,-1,-1,-1,-1,-1,-1,-1,-1,-1,-1,-1,-1,-1,-1,-1,-1,-1,-1,-1,-1],"loss_changes":[1.823592E2,1.1394112E1,4.912491E1,1.0761459E1,4.005681E0,1.4848793E1,5.381836E0,5.081768E0,2.6045957E0,1.2708306E0,4.4590816E0,1.3453484E0,1.347197E1,4.2694438E-1,1.8674927E0,4.2950134E0,3.2949967E0,0E0,1.8394324E0,6.624335E-1,6.0728204E-1,6.907196E-1,0E0,1.1007648E0,0E0,4.3450794E0,3.7740135E0,8.964634E-2,0E0,1.5917664E0,0E0,1.8640474E0,3.4369202E0,6.7340386E-1,3.9443212E0,1.5994069E-1,1.0183816E0,0E0,0E0,0E0,7.0266366E-1,5.0435126E-1,0E0,6.756191E-1,1.174345E0,2.9665184E0,9.351349E-2,1.4075356E0,1.464416E-1,3.4258282E-1,0E0,1.6347351E0,2.3870532E-1,1.7294363E0,6.433307E-1,3.5628967E0,7.5831014E-1,2.1107085E-1,1.4661211E-1,1.1153874E-1,0E0,0E0,1.5521374E-1,0E0,5.7291806E-1,0E0,1.8143088E-1,0E0,0E0,4.9373412E-1,3.0587435E-1,5.306381E-1,3.4925914E-1,1.4936547E0,3.1704216E0,5.270641E-1,0E0,9.012947E-1,0E0,0E0,0E0,1.8934983E-1,0E0,1.8661499E-2,8.157876E-1,0E0,0E0,0E0,0E0,0E0,0E0,0E0,0E0,0E0,0E0,0E0,0E0,0E0,0E0,0E0,0E0,0E0,0E0,0E0,0E0,0E0,0E0,0E0,0E0,0E0,0E0,0E0,0E0,0E0,0E0,0E0,0E0,0E0,0E0,0E0,0E0,0E0,0E0,0E0,0E0,0E0,0E0,0E0,0E0],"parents":[2147483647,0,0,1,1,2,2,3,3,4,4,5,5,6,6,7,7,8,8,9,9,10,10,11,11,12,12,13,13,14,14,15,15,16,16,18,18,19,19,20,20,21,21,23,23,25,25,26,26,27,27,29,29,31,31,32,32,33,33,34,34,35,35,36,36,40,40,41,41,43,43,44,44,45,45,46,46,47,47,48,48,49,49,51,51,52,52,53,53,54,54,55,55,56,56,57,57,58,58,59,59,62,62,64,64,66,66,69,69,70,70,71,71,72,72,73,73,74,74,75,75,77,77,81,81,83,83,84,84],"right_children":[2,4,6,8,10,12,14,16,18,20,22,24,26,28,30,32,34,-1,36,38,40,42,-1,44,-1,46,48,50,-1,52,-1,54,56,58,60,62,64,-1,-1,-1,66,68,-1,70,72,74,76,78,80,82,-1,84,86,88,90,92,94,96,98,100,-1,-1,102,-1,104,-1,106,-1,-1,108,110,112,114,116,118,120,-1,122,-1,-1,-1,124,-1,126,128,-1,-1,-1,-1,-1,-1,-1,-1,-1,-1,-1,-1,-1,-1,-1,-1,-1,-1,-1,-1,-1,-1,-1,-1,-1,-1,-1,-1,-1,-1,-1,-1,-1,-1,-1,-1,-1,-1,-1,-1,-1,-1,-1,-1],"split_conditions":[2E0,1E0,3E0,1E0,1E0,1E0,1E0,1E0,1E0,2E0,1E0,1E0,2E0,1E0,1E0,1E0,1E0,4.360326E-2,1E0,1E0,1E0,4E0,7.016984E-2,1E0,-1.3821672E-2,1E0,1E0,4E0,-7.898099E-3,1E0,-7.898099E-3,1E0,2E0,2E0,1E0,2E0,1E0,-7.898099E-3,2.9317547E-2,2.2802537E-2,1E0,1E0,4.21019E-2,4E0,1E0,1E0,1E0,1E0,4E0,2E0,2.7363045E-2,1E0,2E0,1E0,1E0,1E0,1E0,3E0,2E0,2E0,5.074612E-2,-1.1847148E-2,4E0,3.68365E-2,2E0,-1.031318E-2,2E0,-1.0530798E-2,1.3736715E-2,2E0,1E0,1E0,1E0,2E0,1E0,3E0,4.31112E-2,1E0,-7.898099E-3,7.888975E-3,-7.898099E-3,1E0,-7.898099E-3,1E0,2E0,-7.898099E-3,1.7101903E-2,-2.7685114E-3,2.7363045E-2,7.3630433E-3,3.8152855E-2,-1.0730971E-2,8.5803494E-4,-2.0002753E-3,1.5031831E-2,-2.6380217E-3,4.5258147E-3,-2.6369572E-3,-1.4479848E-2,1.1836503E-2,3.189246E-3,2.18682E-3,-1.0530798E-2,2.7363045E-2,7.3035927E-3,8.495819E-3,-1.3216719E-3,1.3063677E-2,4.8666964E-3,1.7512267E-2,6.5285264E-4,3.29295E-4,1.0191066E-2,-7.898099E-3,1.661413E-2,1.797592E-2,5.8059595E-3,1.9211847E-2,7.2802536E-2,1.1836503E-2,3.6178328E-2,4.7800407E-2,2.718682E-2,2.5652854E-2,7.3630433E-3,5.6687262E-2,3.6178328E-2,6.5285264E-4,4.21019E-2],"split_indices":[4,17,4,16,30,30,30,19,4,3,1,28,5,26,8,4,30,0,1,4,4,3,0,1,0,15,12,3,0,12,0,14,5,5,1,3,5,0,0,0,1,4,0,3,17,5,1,27,3,3,0,11,3,15,30,20,14,3,3,3,0,0,3,0,3,0,5,0,0,3,20,15,5,3,17,3,0,13,0,0,0,16,0,15,5,0,0,0,0,0,0,0,0,0,0,0,0,0,0,0,0,0,0,0,0,0,0,0,0,0,0,0,0,0,0,0,0,0,0,0,0,0,0,0,0,0,0,0,0],"split_type":[0,0,0,0,0,0,0,0,0,0,0,0,0,0,0,0,0,0,0,0,0,0,0,0,0,0,0,0,0,0,0,0,0,0,0,0,0,0,0,0,0,0,0,0,0,0,0,0,0,0,0,0,0,0,0,0,0,0,0,0,0,0,0,0,0,0,0,0,0,0,0,0,0,0,0,0,0,0,0,0,0,0,0,0,0,0,0,0,0,0,0,0,0,0,0,0,0,0,0,0,0,0,0,0,0,0,0,0,0,0,0,0,0,0,0,0,0,0,0,0,0,0,0,0,0,0,0,0,0],"sum_hessian":[2.796E3,2.087E3,7.09E2,2.032E3,5.5E1,5.8E2,1.29E2,1.984E3,4.8E1,3.9E1,1.6E1,2.53E2,3.27E2,1.3E1,1.16E2,1.905E3,7.9E1,6E0,4.2E1,7E0,3.2E1,1.1E1,5E0,2.46E2,7E0,2.49E2,7.8E1,1.2E1,1E0,1.15E2,1E0,1.11E2,1.794E3,5.5E1,2.4E1,1.6E1,2.6E1,1E0,6E0,2E0,3E1,1E1,1E0,1.19E2,1.27E2,2.25E2,2.4E1,7.1E1,7E0,8E0,4E0,1.13E2,2E0,1.04E2,7E0,1.69E3,1.04E2,4E1,1.5E1,1.8E1,6E0,3E0,1.3E1,5E0,2.1E1,1.1E1,1.9E1,2E0,8E0,8.2E1,3.7E1,1.08E2,1.9E1,1.25E2,1E2,1.2E1,1.2E1,7E1,1E0,6E0,1E0,7E0,1E0,1.09E2,4E0,1E0,1E0,1E2,4E0,4E0,3E0,1.621E3,6.9E1,9.8E1,6E0,2.3E1,1.7E1,4E0,1.1E1,5E0,1.3E1,1.1E1,2E0,4E0,1.7E1,1.2E1,7E0,2.9E1,5.3E1,3.4E1,3E0,9.3E1,1.5E1,1E0,1.8E1,3.5E1,9E1,9.8E1,2E0,5E0,7E0,5.9E1,1.1E1,3E0,4E0,1.02E2,7E0,3E0,1E0],"tree_param":{"num_deleted":"0","num_feature":"32","num_nodes":"129","size_leaf_vector":"1"}},{"base_weights":[-5.7684816E-3,-1.2939496E-1,1.3665444E-1,-1.4770608E-1,2.6253572E-1,5.878362E-2,7.0950484E-1,-1.701613E-1,2.179565E-1,3.196834E-1,-1.3648537E-2,3.851752E-2,6.98671E-1,7.684289E-1,6.116728E-2,-1.8491086E-1,1.3291556E-1,4.3067902E-1,6.1563734E-2,1.7756118E-2,1.2035898E-2,1.609891E-2,6.6935474E-1,1.1732748E0,3.6489263E-1,7.9291594E-1,-6.109903E-2,1.2368243E-1,-1.046412E-2,-1.9840568E-1,5.9127647E-2,1.7068353E-1,-1.27163725E-2,5.0015444E-1,-1.1639707E-2,1.0403433E-1,-1.3007395E-2,1.16538934E-1,-9.926829E-2,5.6805115E-2,2.7826092E-1,1.6621605E-2,6.0619164E-2,2.5769768E-2,-1.2494787E-2,8.379737E-1,1.6698888E-2,1.0745069E-1,-1.046412E-2,-4.829228E-3,1.474069E-2,-2.1164924E-1,2.44506E-4,-1.14185356E-1,1.3899484E-1,1.2424987E-1,3.2185778E-1,3.491093E-2,1.6394427E-2,7.631804E-2,2.2869213E-2,8.038042E-2,4.8885215E-2,-1.144734E-1,3.385751E-1,1.685982E-2,-1.0369792E-2,8.5670376E-1,-1.046412E-2,-7.8480905E-3,1.590689E-2,-1.1193729E-2,-1.9984301E-3,-5.0121886E-3,6.5140487E-3,-7.614653E-3,1.715191E-2,1.023434E-2,-1.3281437E-2,-6.003378E-3,1.0223293E-2,1.9177984E-2,7.3211417E-3,-1.6447908E-3,7.979955E-3,2.4998132E-3,4.043543E-2,-4.344363E-3,-1.519454E-2,2.4074402E-2,-1.2313196E-2,3.9583508E-2,5.7602167E-2],"categories":[],"categories_nodes":[],"categories_segments":[],"categories_sizes":[],"default_left":[0,0,0,0,0,0,0,0,0,0,0,0,0,0,0,0,0,0,0,0,0,0,0,0,0,0,0,0,0,0,0,0,0,0,0,0,0,0,0,0,0,0,0,0,0,0,0,0,0,0,0,0,0,0,0,0,0,0,0,0,0,0,0,0,0,0,0,0,0,0,0,0,0,0,0,0,0,0,0,0,0,0,0,0,0,0,0,0,0,0,0,0,0],"id":1,"left_children":[1,3,5,7,9,11,13,15,17,19,-1,21,23,25,27,29,31,33,35,-1,-1,37,39,41,43,45,47,49,-1,51,53,55,-1,57,-1,59,-1,61,63,-1,65,-1,-1,-1,-1,67,-1,69,-1,-1,-1,71,73,75,77,79,81,-1,-1,83,-1,85,-1,87,89,-1,-1,91,-1,-1,-1,-1,-1,-1,-1,-1,-1,-1,-1,-1,-1,-1,-1,-1,-1,-1,-1,-1,-1,-1,-1,-1,-1],"loss_changes":[4.9106674E1,1.0753572E1,5.7770683E1,1.1754234E1,2.1376624E0,1.478257E1,5.87442E0,6.0370636E0,2.7347517E0,8.522129E-2,0E0,1.5659106E1,5.1163177E0,2.932846E0,2.6258537E-1,4.2369766E0,9.648088E-1,1.7297602E0,6.9656515E-1,0E0,0E0,1.2421763E1,6.620466E0,5.7340622E-2,2.1643963E0,2.5738068E0,1.4736885E-1,4.808095E-1,0E0,3.19915E0,9.571289E-1,3.6714447E-1,0E0,8.628931E-1,0E0,3.9600945E-1,0E0,1.7763748E1,3.3608294E0,0E0,6.996261E-1,0E0,0E0,0E0,0E0,2.6311874E0,0E0,2.1706042E-1,0E0,0E0,0E0,2.3837395E0,1.0192295E0,4.355646E-1,1.3036547E0,9.2606515E-1,8.4558845E-2,0E0,0E0,3.8725883E-1,0E0,1.2152996E1,0E0,2.4974132E0,1.539451E0,0E0,0E0,1.4504242E0,0E0,0E0,0E0,0E0,0E0,0E0,0E0,0E0,0E0,0E0,0E0,0E0,0E0,0E0,0E0,0E0,0E0,0E0,0E0,0E0,0E0,0E0,0E0,0E0,0E0],"parents":[2147483647,0,0,1,1,2,2,3,3,4,4,5,5,6,6,7,7,8,8,9,9,11,11,12,12,13,13,14,14,15,15,16,16,17,17,18,18,21,21,22,22,23,23,24,24,25,25,26,26,27,27,29,29,30,30,31,31,33,33,35,35,37,37,38,38,40,40,45,45,47,47,51,51,52,52,53,53,54,54,55,55,56,56,59,59,61,61,63,63,64,64,67,67],"right_children":[2,4,6,8,10,12,14,16,18,20,-1,22,24,26,28,30,32,34,36,-1,-1,38,40,42,44,46,48,50,-1,52,54,56,-1,58,-1,60,-1,62,64,-1,66,-1,-1,-1,-1,68,-1,70,-1,-1,-1,72,74,76,78,80,82,-1,-1,84,-1,86,-1,88,90,-1,-1,92,-1,-1,-1,-1,-1,-1,-1,-1,-1,-1,-1,-1,-1,-1,-1,-1,-1,-1,-1,-1,-1,-1,-1,-1,-1],"split_conditions":[1E0,1E0,2E0,1E0,2.3E1,1E0,1E0,1E0,1E0,2E0,-1.3648537E-2,1E0,2.2E1,1E0,3E0,1E0,2.3E1,2.3E1,2.1E1,1.7756118E-2,1.2035898E-2,2.1E1,2.2E1,2E1,2.3E1,1E0,3E0,2E1,-1.046412E-2,1E0,2E1,2E0,-1.27163725E-2,2.2E1,-1.1639707E-2,3E0,-1.3007395E-2,1E0,1E0,5.6805115E-2,2.3E1,1.6621605E-2,6.0619164E-2,2.5769768E-2,-1.2494787E-2,1E0,1.6698888E-2,2E1,-1.046412E-2,-4.829228E-3,1.474069E-2,1E0,2.1E1,3E0,2.3E1,2E1,2E1,3.491093E-2,1.6394427E-2,2E1,2.2869213E-2,1E0,4.8885215E-2,2.3E1,2.3E1,1.685982E-2,-1.0369792E-2,1E0,-1.046412E-2,-7.8480905E-3,1.590689E-2,-1.1193729E-2,-1.9984301E-3,-5.0121886E-3,6.5140487E-3,-7.614653E-3,1.715191E-2,1.023434E-2,-1.3281437E-2,-6.003378E-3,1.0223293E-2,1.9177984E-2,7.3211417E-3,-1.6447908E-3,7.979955E-3,2.4998132E-3,4.043543E-2,-4.344363E-3,-1.519454E-2,2.4074402E-2,-1.2313196E-2,3.9583508E-2,5.7602167E-2],"split_indices":[30,16,5,18,0,14,12,15,5,5,0,16,0,10,5,21,0,0,0,0,0,0,0,0,0,11,5,0,0,19,0,5,0,0,0,5,0,18,15,0,0,0,0,0,0,28,0,0,0,0,0,20,0,5,0,0,0,0,0,0,0,20,0,0,0,0,0,16,0,0,0,0,0,0,0,0,0,0,0,0,0,0,0,0,0,0,0,0,0,0,0,0,0],"split_type":[0,0,0,0,0,0,0,0,0,0,0,0,0,0,0,0,0,0,0,0,0,0,0,0,0,0,0,0,0,0,0,0,0,0,0,0,0,0,0,0,0,0,0,0,0,0,0,0,0,0,0,0,0,0,0,0,0,0,0,0,0,0,0,0,0,0,0,0,0,0,0,0,0,0,0,0,0,0,0,0,0,0,0,0,0,0,0,0,0,0,0,0,0],"sum_hessian":[2.787E3,1.492E3,1.295E3,1.426E3,6.6E1,1.141E3,1.54E2,1.344E3,8.2E1,6E1,6E0,1.107E3,3.4E1,1.41E2,1.3E1,1.282E3,6.2E1,3.4E1,4.8E1,3.9E1,2.1E1,1.07E3,3.7E1,1.3E1,2.1E1,1.37E2,4E0,1.1E1,2E0,1.215E3,6.7E1,5.7E1,5E0,3.1E1,3E0,4.3E1,5E0,5.72E2,4.98E2,1.6E1,2.1E1,1E0,1.2E1,1.7E1,4E0,1.24E2,1.3E1,2E0,2E0,5E0,6E0,1.139E3,7.6E1,2.1E1,4.6E1,4.5E1,1.2E1,1.3E1,1.8E1,4.1E1,2E0,5.5E2,2.2E1,4.82E2,1.6E1,1.9E1,2E0,1.22E2,2E0,1E0,1E0,1.063E3,7.6E1,4.3E1,3.3E1,2E1,1E0,4E1,6E0,1.1E1,3.4E1,8E0,4E0,1.8E1,2.3E1,5.29E2,2.1E1,4.22E2,6E1,1.3E1,3E0,1.03E2,1.9E1],"tree_param":{"num_deleted":"0","num_feature":"32","num_nodes":"93","size_leaf_vector":"1"}},{"base_weights":[4.802654E-3,-1.401218E-1,4.3103236E-1,-1.5025865E-1,2.389634E-1,3.2131884E-1,9.3960786E-1,-1.5873301E-1,2.5726426E-1,3.8764712E-1,-1.356092E-2,1.4651015E-1,4.4575503E-1,9.624749E-1,1.5455484E-3,-1.688793E-1,1.1169247E-1,3.6836195E-1,-1.3047303E-2,2.4071014E-1,7.082163E-1,1.639975E-1,-1.4129551E-2,5.5793136E-1,1.826005E-1,3.5821545E-1,1.0013953E0,-8.388141E-3,5.69513E-3,1.7505212E-3,-1.7999192E-1,1.8659286E-1,-1.4230031E-2,2.7392247E-1,3.264274E-2,9.1749796E-4,1.9009119E-2,5.4444093E-2,4.1313083E-3,6.989052E-2,2.757559E-1,5.1564026E-1,1.117779E0,2.0775749E-1,-1.3146169E-2,2.200482E-2,-7.420802E-3,1.01347E0,-9.377775E-3,-2.3109032E-2,4.0280467E-1,-1.8876372E-1,1.2277208E-2,2.9287318E-2,5.694905E-1,3.5851877E-2,1.9206718E-1,3.5924748E-2,1.3321568E-2,2.9194632E-1,-1.09090675E-2,5.390633E-1,-1.454134E-2,5.7543326E-2,1.5536624E-2,2.3114672E-1,-6.633238E-3,1.0328028E0,2.2361878E-1,-2.0713813E-3,1.1125049E-2,7.9650286E-4,3.4448903E-2,-9.877791E-3,1.5946382E-5,7.829315E-3,-1.0453987E-2,-9.771614E-3,1.0844015E-2,4.634882E-2,1.2886442E-2,1.2602138E-2,9.190696E-5,-2.1325364E-3,4.0950016E-3,1.5611596E-2,-4.740225E-3,2.7977346E-2,-1.4068152E-2,1.2819754E-2,1.9677044E-3,5.3724755E-2,3.179266E-2,-1.2287634E-2,4.079333E-2],"categories":[],"categories_nodes":[],"categories_segments":[],"categories_sizes":[],"default_left":[0,0,0,0,0,0,0,0,0,0,0,0,0,0,0,0,0,0,0,0,0,0,0,0,0,0,0,0,0,0,0,0,0,0,0,0,0,0,0,0,0,0,0,0,0,0,0,0,0,0,0,0,0,0,0,0,0,0,0,0,0,0,0,0,0,0,0,0,0,0,0,0,0,0,0,0,0,0,0,0,0,0,0,0,0,0,0,0,0,0,0,0,0,0,0],"id":2,"left_children":[1,3,5,7,9,11,13,15,17,19,-1,21,23,25,27,29,31,33,-1,35,37,39,-1,41,43,45,47,-1,-1,49,51,53,-1,55,-1,-1,-1,-1,-1,57,59,61,63,65,-1,-1,-1,67,-1,69,71,73,75,77,79,-1,81,83,-1,85,-1,87,-1,-1,-1,89,-1,91,93,-1,-1,-1,-1,-1,-1,-1,-1,-1,-1,-1,-1,-1,-1,-1,-1,-1,-1,-1,-1,-1,-1,-1,-1,-1,-1],"loss_changes":[1.7357544E2,8.094101E0,3.9481766E1,7.096344E0,4.277202E0,1.2725174E1,2.7013016E0,5.511978E0,2.514145E0,1.8549738E0,0E0,1.8922896E0,1.0023384E1,2.5340042E0,9.520058E-2,3.659874E0,2.2199278E0,7.6152515E-1,0E0,9.5442903E-1,3.005858E0,2.4733143E0,0E0,5.106003E0,1.2202606E0,4.386686E-1,1.8410339E0,0E0,0E0,1.1957415E0,3.0583458E0,3.7177002E0,0E0,8.778775E-1,0E0,0E0,0E0,0E0,0E0,8.5826457E-1,9.2737865E-1,4.406994E0,6.9639206E-2,8.1892395E-1,0E0,0E0,0E0,1.509819E0,0E0,5.1763064E-1,7.640172E-1,2.88105E0,2.5882442E0,1.9393973E0,1.7671981E0,0E0,2.8476417E-1,4.0809643E-1,0E0,8.533745E-1,0E0,3.8377953E0,0E0,0E0,0E0,4.4025707E-1,0E0,1.1538086E0,1.3124384E0,0E0,0E0,0E0,0E0,0E0,0E0,0E0,0E0,0E0,0E0,0E0,0E0,0E0,0E0,0E0,0E0,0E0,0E0,0E0,0E0,0E0,0E0,0E0,0E0,0E0,0E0],"parents":[2147483647,0,0,1,1,2,2,3,3,4,4,5,5,6,6,7,7,8,8,9,9,11,11,12,12,13,13,14,14,15,15,16,16,17,17,19,19,20,20,21,21,23,23,24,24,25,25,26,26,29,29,30,30,31,31,33,33,39,39,40,40,41,41,42,42,43,43,47,47,49,49,50,50,51,51,52,52,53,53,54,54,56,56,57,57,59,59,61,61,65,65,67,67,68,68],"right_children":[2,4,6,8,10,12,14,16,18,20,-1,22,24,26,28,30,32,34,-1,36,38,40,-1,42,44,46,48,-1,-1,50,52,54,-1,56,-1,-1,-1,-1,-1,58,60,62,64,66,-1,-1,-1,68,-1,70,72,74,76,78,80,-1,82,84,-1,86,-1,88,-1,-1,-1,90,-1,92,94,-1,-1,-1,-1,-1,-1,-1,-1,-1,-1,-1,-1,-1,-1,-1,-1,-1,-1,-1,-1,-1,-1,-1,-1,-1,-1],"split_conditions":[2E0,1E0,3E0,1E0,2.3E1,1E0,1E0,1E0,2.3E1,1E0,-1.356092E-2,2.3E1,2.2E1,1E0,2E1,1E0,2.3E1,1E0,-1.3047303E-2,2E1,2.2E1,2.1E1,-1.4129551E-2,1E0,2.3E1,1E0,1E0,-8.388141E-3,5.69513E-3,1E0,1E0,1E0,-1.4230031E-2,1E0,3.264274E-2,9.1749796E-4,1.9009119E-2,5.4444093E-2,4.1313083E-3,1E0,1E0,1E0,2.1E1,1E0,-1.3146169E-2,2.200482E-2,-7.420802E-3,1E0,-9.377775E-3,1E0,1E0,1E0,2.2E1,2E1,2.1E1,3.5851877E-2,2.1E1,2E1,1.3321568E-2,1E0,-1.09090675E-2,1E0,-1.454134E-2,5.7543326E-2,1.5536624E-2,1E0,-6.633238E-3,2.1E1,2E1,-2.0713813E-3,1.1125049E-2,7.9650286E-4,3.4448903E-2,-9.877791E-3,1.5946382E-5,7.829315E-3,-1.0453987E-2,-9.771614E-3,1.0844015E-2,4.634882E-2,1.2886442E-2,1.2602138E-2,9.190696E-5,-2.1325364E-3,4.0950016E-3,1.5611596E-2,-4.740225E-3,2.7977346E-2,-1.4068152E-2,1.2819754E-2,1.9677044E-3,5.3724755E-2,3.179266E-2,-1.2287634E-2,4.079333E-2],"split_indices":[4,18,4,16,0,30,12,19,0,30,0,0,0,30,0,4,0,30,0,0,0,0,0,16,0,26,29,0,0,14,20,30,0,4,0,0,0,0,0,16,28,27,0,11,0,0,0,10,0,21,30,12,0,0,0,0,0,0,0,23,0,28,0,0,0,19,0,0,0,0,0,0,0,0,0,0,0,0,0,0,0,0,0,0,0,0,0,0,0,0,0,0,0,0,0],"split_type":[0,0,0,0,0,0,0,0,0,0,0,0,0,0,0,0,0,0,0,0,0,0,0,0,0,0,0,0,0,0,0,0,0,0,0,0,0,0,0,0,0,0,0,0,0,0,0,0,0,0,0,0,0,0,0,0,0,0,0,0,0,0,0,0,0,0,0,0,0,0,0,0,0,0,0,0,0,0,0,0,0,0,0,0,0,0,0,0,0,0,0,0,0,0,0],"sum_hessian":[2.808E3,2.096E3,7.12E2,2.042E3,5.4E1,5.87E2,1.25E2,2.001E3,4.1E1,4.2E1,1.2E1,2.45E2,3.42E2,1.22E2,3E0,1.929E3,7.2E1,3.4E1,7E0,3E1,1.2E1,2.36E2,9E0,2.39E2,1.03E2,8E0,1.14E2,1E0,2E0,1.18E2,1.811E3,6.1E1,1.1E1,2.7E1,7E0,1.2E1,1.8E1,7E0,5E0,1.29E2,1.07E2,2.24E2,1.5E1,9.8E1,5E0,7E0,1E0,1.13E2,1E0,1.12E2,6E0,1.732E3,7.9E1,4.4E1,1.7E1,3E0,2.4E1,1.11E2,1.8E1,1.04E2,3E0,2.18E2,6E0,1.4E1,1E0,9.2E1,6E0,1.1E2,3E0,1.05E2,7E0,3E0,3E0,1.655E3,7.7E1,4.8E1,3.1E1,2E1,2.4E1,7E0,1E1,1.8E1,6E0,4.1E1,7E1,9.9E1,5E0,2.13E2,5E0,8.1E1,1.1E1,9.8E1,1.2E1,2E0,1E0],"tree_param":{"num_deleted":"0","num_feature":"32","num_nodes":"95","size_leaf_vector":"1"}},{"base_weights":[8.895792E-3,-1.2723388E-1,4.005125E-1,-1.3667166E-1,1.9640037E-1,3.0215564E-1,8.571688E-1,6.1993904E-2,-1.4920443E-1,3.0328864E-1,-1.2821338E-2,2.4425313E-1,5.010751E-1,9.3220747E-1,4.900327E-1,3.201244E-2,2.7498666E-2,-1.571523E-1,3.8301922E-2,3.760594E-1,1.296952E-1,2.5986415E-1,-1.408331E-2,5.257198E-1,-1.2241626E-2,9.5698726E-1,-1.1878047E-2,5.290763E-1,-1.0199234E-2,6.1860997E-3,2.522322E-2,-1.6645259E-1,1.7861169E-2,9.846661E-2,-1.3736196E-2,4.921253E-1,6.113076E-3,5.3610284E-2,2.2076322E-2,2.341121E-1,5.0175905E-1,5.510501E-1,-1.7097677E-3,9.853811E-1,7.9503655E-4,2.8314013E-2,-7.2352826E-3,2.3871876E-2,-1.2999214E-2,-1.748063E-1,2.5335617E-2,-8.059853E-3,3.9937946E-1,3.4688845E-1,-7.7890344E-2,6.625135E-1,3.57084E-1,3.5149183E-3,-2.8422623E-4,2.5037062E-1,-4.0520962E-2,6.081053E-1,1.4214662E-2,5.791332E-1,1.2474208E-1,-3.5080337E-3,5.64725E-3,9.9889225E-1,-9.143332E-3,-1.0722637E-2,1.6163459E-2,2.0132733E-3,-1.2666664E-2,-9.140528E-3,2.211117E-3,8.432751E-3,-8.4020775E-3,-2.101575E-3,1.7057851E-2,3.9308514E-2,4.7207624E-4,3.0112026E-2,2.4259628E-3,2.8205055E-4,-8.525568E-3,4.7180414E-2,1.8234903E-2,1.082538E-3,2.1956906E-2,1.3192937E-2,-3.0944569E-3,-1.21871E-2,-5.483571E-4,3.6190916E-2,2.3804097E-2,2.9349852E-2,-8.326701E-3,-1.1565371E-2,1.2975722E-2,6.6238575E-2,4.739819E-2],"categories":[],"categories_nodes":[],"categories_segments":[],"categories_sizes":[],"default_left":[0,0,0,0,0,0,0,0,0,0,0,0,0,0,0,0,0,0,0,0,0,0,0,0,0,0,0,0,0,0,0,0,0,0,0,0,0,0,0,0,0,0,0,0,0,0,0,0,0,0,0,0,0,0,0,0,0,0,0,0,0,0,0,0,0,0,0,0,0,0,0,0,0,0,0,0,0,0,0,0,0,0,0,0,0,0,0,0,0,0,0,0,0,0,0,0,0,0,0,0,0],"id":3,"left_children":[1,3,5,7,9,11,13,15,17,19,-1,21,23,25,27,29,-1,31,33,35,37,39,-1,41,-1,43,-1,45,-1,47,-1,49,51,53,-1,55,-1,57,-1,59,61,63,65,67,69,-1,-1,71,-1,73,75,77,79,81,83,85,87,-1,-1,89,91,93,-1,95,97,-1,-1,99,-1,-1,-1,-1,-1,-1,-1,-1,-1,-1,-1,-1,-1,-1,-1,-1,-1,-1,-1,-1,-1,-1,-1,-1,-1,-1,-1,-1,-1,-1,-1,-1,-1],"loss_changes":[1.5108003E2,6.450222E0,3.257406E1,5.098465E0,2.9818857E0,6.8229294E0,3.0970612E0,1.7672951E0,2.8718147E0,5.7022095E-1,0E0,3.9237442E0,2.6103783E0,3.2999191E0,7.582488E-1,1.4122773E0,0E0,3.0060349E0,1.5148661E0,9.413791E-1,3.559401E-1,2.7230873E0,0E0,1.7510948E0,0E0,2.822815E0,0E0,6.584935E-1,0E0,5.2873105E-1,0E0,2.811386E0,9.3281734E-1,2.962351E0,0E0,2.926445E-1,0E0,1.4252849E-2,0E0,1.8587055E0,8.215666E-1,1.424263E0,6.286185E-2,1.7768784E0,3.4697333E-1,0E0,0E0,4.8736125E-1,0E0,2.951641E0,2.0792284E0,1.0701884E0,8.975237E-1,2.1040766E0,3.1043223E-1,4.09297E-1,4.0334713E-1,0E0,0E0,1.6631432E0,1.4146982E-1,8.3153725E-2,0E0,7.838173E-1,4.918983E-1,0E0,0E0,4.0382385E-1,0E0,0E0,0E0,0E0,0E0,0E0,0E0,0E0,0E0,0E0,0E0,0E0,0E0,0E0,0E0,0E0,0E0,0E0,0E0,0E0,0E0,0E0,0E0,0E0,0E0,0E0,0E0,0E0,0E0,0E0,0E0,0E0,0E0],"parents":[2147483647,0,0,1,1,2,2,3,3,4,4,5,5,6,6,7,7,8,8,9,9,11,11,12,12,13,13,14,14,15,15,17,17,18,18,19,19,20,20,21,21,23,23,25,25,27,27,29,29,31,31,32,32,33,33,35,35,37,37,39,39,40,40,41,41,42,42,43,43,44,44,47,47,49,49,50,50,51,51,52,52,53,53,54,54,55,55,56,56,59,59,60,60,61,61,63,63,64,64,67,67],"right_children":[2,4,6,8,10,12,14,16,18,20,-1,22,24,26,28,30,-1,32,34,36,38,40,-1,42,-1,44,-1,46,-1,48,-1,50,52,54,-1,56,-1,58,-1,60,62,64,66,68,70,-1,-1,72,-1,74,76,78,80,82,84,86,88,-1,-1,90,92,94,-1,96,98,-1,-1,100,-1,-1,-1,-1,-1,-1,-1,-1,-1,-1,-1,-1,-1,-1,-1,-1,-1,-1,-1,-1,-1,-1,-1,-1,-1,-1,-1,-1,-1,-1,-1,-1,-1],"split_conditions":[2E0,1E0,3E0,1E0,2.3E1,2E0,2.1E1,1E0,1E0,2E0,-1.2821338E-2,2.3E1,1E0,1E0,1E0,1E0,2.7498666E-2,2E0,2.3E1,2.2E1,3E0,1E0,-1.408331E-2,1E0,-1.2241626E-2,1E0,-1.1878047E-2,1E0,-1.0199234E-2,1E0,2.522322E-2,1E0,1E0,1E0,-1.3736196E-2,1E0,6.113076E-3,2E1,2.2076322E-2,1E0,2.2E1,1E0,2E1,1E0,2E0,2.8314013E-2,-7.2352826E-3,1E0,-1.2999214E-2,1E0,2.2E1,1E0,2E1,2.2E1,2E0,2E1,2E1,3.5149183E-3,-2.8422623E-4,1E0,2E1,1E0,1.4214662E-2,1E0,2E1,-3.5080337E-3,5.64725E-3,1E0,-9.143332E-3,-1.0722637E-2,1.6163459E-2,2.0132733E-3,-1.2666664E-2,-9.140528E-3,2.211117E-3,8.432751E-3,-8.4020775E-3,-2.101575E-3,1.7057851E-2,3.9308514E-2,4.7207624E-4,3.0112026E-2,2.4259628E-3,2.8205055E-4,-8.525568E-3,4.7180414E-2,1.8234903E-2,1.082538E-3,2.1956906E-2,1.3192937E-2,-3.0944569E-3,-1.21871E-2,-5.483571E-4,3.6190916E-2,2.3804097E-2,2.9349852E-2,-8.326701E-3,-1.1565371E-2,1.2975722E-2,6.6238575E-2,4.739819E-2],"split_indices":[4,18,4,4,0,5,0,15,19,5,0,0,23,10,15,14,0,5,0,0,5,15,0,21,0,12,0,26,0,25,0,20,11,5,0,5,0,0,0,11,0,12,0,29,5,0,0,24,0,21,0,14,0,0,5,0,0,0,0,23,0,5,0,27,0,0,0,5,0,0,0,0,0,0,0,0,0,0,0,0,0,0,0,0,0,0,0,0,0,0,0,0,0,0,0,0,0,0,0,0,0],"split_type":[0,0,0,0,0,0,0,0,0,0,0,0,0,0,0,0,0,0,0,0,0,0,0,0,0,0,0,0,0,0,0,0,0,0,0,0,0,0,0,0,0,0,0,0,0,0,0,0,0,0,0,0,0,0,0,0,0,0,0,0,0,0,0,0,0,0,0,0,0,0,0,0,0,0,0,0,0,0,0,0,0,0,0,0,0,0,0,0,0,0,0,0,0,0,0,0,0,0,0,0,0],"sum_hessian":[2.832E3,2.102E3,7.3E2,2.043E3,5.9E1,6.02E2,1.28E2,1.21E2,1.922E3,4.8E1,1.1E1,4.68E2,1.34E2,1.05E2,2.3E1,1.15E2,6E0,1.844E3,7.8E1,3.3E1,1.5E1,4.55E2,1.3E1,1.3E2,4E0,1.03E2,2E0,2.2E1,1E0,1.1E2,5E0,1.751E3,9.3E1,6.6E1,1.2E1,2.2E1,1.1E1,1.3E1,2E0,4.13E2,4.2E1,1.24E2,6E0,1E2,3E0,2.1E1,1E0,1.04E2,6E0,1.678E3,7.3E1,8.8E1,5E0,2.7E1,3.9E1,8E0,1.4E1,1E1,3E0,3.9E2,2.3E1,2.7E1,1.5E1,1.16E2,8E0,4E0,2E0,9.9E1,1E0,2E0,1E0,9.9E1,5E0,1.619E3,5.9E1,4.2E1,3.1E1,8.1E1,7E0,2E0,3E0,1.4E1,1.3E1,2.1E1,1.8E1,3E0,5E0,3E0,1.1E1,3.74E2,1.6E1,2E0,2.1E1,1.2E1,1.5E1,1.15E2,1E0,2E0,6E0,1E1,8.9E1],"tree_param":{"num_deleted":"0","num_feature":"32","num_nodes":"101","size_leaf_vector":"1"}},{"base_weights":[-2.4122314E-3,-1.2141572E-1,3.6251235E-1,-1.3060926E-1,2.7854288E-1,2.6427326E-1,8.0601066E-1,-1.421794E-1,2.1297088E-1,3.7415255E-2,1.8008824E-1,9.980498E-2,3.8518167E-1,2.9479212E-1,8.5275286E-1,-1.1898374E-1,-2.0730673E-1,3.0574837E-1,-1.2273486E-2,3.358697E-1,-5.9595592E-2,8.811449E-3,2.0534381E-1,2.6784167E-1,7.382409E-1,1.936342E-1,2.243497E-2,8.735334E-1,-1.0365216E-2,-1.5867437E-1,-5.9146743E-2,-2.1654059E-1,8.1903696E-2,2.0576772E-1,4.9487975E-1,3.343275E-2,2.1924064E-1,5.9171654E-2,-1.188581E-2,-2.553637E-2,2.0071866E-1,1.5008582E-1,5.8142936E-1,2.2782032E-1,6.667955E-1,7.84673E-1,2.7060747E-2,8.543301E-2,1.9077946E-2,8.8511163E-1,-1.0291216E-2,-1.6606717E-1,3.8570553E-2,-7.7192724E-2,6.413713E-1,-1.9649209E-1,-1.3711521E-2,-1.1394988E-2,1.9475858E-1,1.066138E-1,2.0998979E-2,8.9922357E-1,-2.7152433E-3,1.3999575E-1,3.206085E-1,-1.208026E-2,1.0108181E-2,-1.5831128E-1,4.2076737E-2,7.6563717E-3,2.0967988E-2,1.8329108E-1,-1.2526768E-2,3.2419793E-2,-7.2283777E-3,1.8694791E-1,6.897377E-1,3.8175695E-2,-1.0012957E-2,8.515395E-1,4.559799E-1,-8.3848955E-3,4.977603E-3,1.9233349E-1,-4.282573E-2,9.295634E-1,5.107269E-1,-8.6859595E-3,1.5364732E-3,2.328984E-2,-9.839316E-4,-4.5705014E-3,2.143958E-2,5.2473076E-2,1.9878466E-2,-1.03065E-2,4.929745E-4,1.6872417E-2,-1.0532771E-2,3.2783845E-3,2.1340443E-2,5.6591224E-2,2.5837604E-2,9.6797785E-3,2.2598365E-3,6.021596E-3,2.4533853E-2,-1.249312E-2,1.8580249E-2,3.0905216E-3,-1.2327853E-2,6.1298865E-3,2.3196107E-2,1.0122401E-2,-1.44631E-2,3.7380747E-2,-7.354391E-3,4.354114E-2,-8.118534E-3,2.3991396E-3,2.9999021E-2,1.4469645E-2,3.175803E-3,-9.214476E-3,3.2879354E-3,4.7586035E-2,8.546914E-3,2.9148271E-2,-1.0709337E-2],"categories":[],"categories_nodes":[],"categories_segments":[],"categories_sizes":[],"default_left":[0,0,0,0,0,0,0,0,0,0,0,0,0,0,0,0,0,0,0,0,0,0,0,0,0,0,0,0,0,0,0,0,0,0,0,0,0,0,0,0,0,0,0,0,0,0,0,0,0,0,0,0,0,0,0,0,0,0,0,0,0,0,0,0,0,0,0,0,0,0,0,0,0,0,0,0,0,0,0,0,0,0,0,0,0,0,0,0,0,0,0,0,0,0,0,0,0,0,0,0,0,0,0,0,0,0,0,0,0,0,0,0,0,0,0,0,0,0,0,0,0,0,0,0,0,0,0,0,0],"id":4,"left_children":[1,3,5,7,9,11,13,15,17,-1,19,21,23,25,27,29,31,33,-1,35,37,39,41,43,45,47,-1,49,-1,51,53,55,57,59,61,-1,63,65,-1,67,69,71,73,75,77,79,81,83,-1,85,-1,87,89,91,93,95,-1,-1,97,99,-1,101,-1,103,105,-1,-1,107,109,-1,-1,111,-1,-1,-1,113,115,-1,-1,117,119,-1,-1,121,123,125,127,-1,-1,-1,-1,-1,-1,-1,-1,-1,-1,-1,-1,-1,-1,-1,-1,-1,-1,-1,-1,-1,-1,-1,-1,-1,-1,-1,-1,-1,-1,-1,-1,-1,-1,-1,-1,-1,-1,-1,-1,-1,-1],"loss_changes":[1.22205E2,7.839052E0,2.9936653E1,8.278961E0,2.0852525E0,1.125658E1,2.73555E0,3.0087624E0,2.967293E0,0E0,1.5508865E0,2.3222017E0,1.3349213E1,9.994376E-2,2.692337E0,3.5126934E0,1.4224339E0,9.7600985E-1,0E0,8.2371473E-1,3.7369925E-1,8.6862445E-1,2.2402892E0,3.7918568E0,2.6535149E0,1.5040538E-1,0E0,1.5818481E0,0E0,1.3056545E0,7.545941E0,5.359802E-1,6.3875353E-1,7.835823E-1,4.2679605E0,0E0,1.157738E-1,5.2193916E-1,0E0,1.0121217E0,1.4389247E-1,1.3628907E0,7.7438164E-1,4.1378593E0,1.9978237E0,1.2820854E0,1.0140453E-1,1.0421326E-1,0E0,1.3725128E0,0E0,1.2988987E0,8.3039045E-1,4.2043667E0,1.0751643E0,7.617531E-1,0E0,0E0,8.231149E-1,3.4001246E-1,0E0,3.9372253E-1,0E0,5.7305843E-2,2.1325678E-1,0E0,0E0,1.9363979E0,4.4242555E-1,0E0,0E0,1.5101087E0,0E0,0E0,0E0,1.601254E0,9.817629E-1,0E0,0E0,1.3535919E0,8.524883E-1,0E0,0E0,3.163068E-2,7.3561706E-2,1.4846039E0,8.579967E-1,0E0,0E0,0E0,0E0,0E0,0E0,0E0,0E0,0E0,0E0,0E0,0E0,0E0,0E0,0E0,0E0,0E0,0E0,0E0,0E0,0E0,0E0,0E0,0E0,0E0,0E0,0E0,0E0,0E0,0E0,0E0,0E0,0E0,0E0,0E0,0E0,0E0,0E0,0E0,0E0,0E0,0E0],"parents":[2147483647,0,0,1,1,2,2,3,3,4,4,5,5,6,6,7,7,8,8,10,10,11,11,12,12,13,13,14,14,15,15,16,16,17,17,19,19,20,20,21,21,22,22,23,23,24,24,25,25,27,27,29,29,30,30,31,31,32,32,33,33,34,34,36,36,37,37,39,39,40,40,41,41,42,42,43,43,44,44,45,45,46,46,47,47,49,49,51,51,52,52,53,53,54,54,55,55,58,58,59,59,61,61,63,63,64,64,67,67,68,68,71,71,75,75,76,76,79,79,80,80,83,83,84,84,85,85,86,86],"right_children":[2,4,6,8,10,12,14,16,18,-1,20,22,24,26,28,30,32,34,-1,36,38,40,42,44,46,48,-1,50,-1,52,54,56,58,60,62,-1,64,66,-1,68,70,72,74,76,78,80,82,84,-1,86,-1,88,90,92,94,96,-1,-1,98,100,-1,102,-1,104,106,-1,-1,108,110,-1,-1,112,-1,-1,-1,114,116,-1,-1,118,120,-1,-1,122,124,126,128,-1,-1,-1,-1,-1,-1,-1,-1,-1,-1,-1,-1,-1,-1,-1,-1,-1,-1,-1,-1,-1,-1,-1,-1,-1,-1,-1,-1,-1,-1,-1,-1,-1,-1,-1,-1,-1,-1,-1,-1,-1,-1],"split_conditions":[2E0,1E0,3E0,1E0,1E0,1E0,1E0,2.2E1,2.3E1,3.7415255E-2,2.1E1,2.1E1,2E0,2.2E1,1E0,1E0,1E0,1E0,-1.2273486E-2,1E0,2.3E1,1E0,1E0,1E0,1E0,1E0,2.243497E-2,1E0,-1.0365216E-2,1E0,1E0,2.3E1,1E0,2.1E1,2.2E1,3.343275E-2,2E1,2.2E1,-1.188581E-2,2E1,3E0,2.3E1,2.3E1,1E0,2.3E1,1E0,2E1,2.1E1,1.9077946E-2,2.1E1,-1.0291216E-2,1E0,1E0,1E0,2E1,1E0,-1.3711521E-2,-1.1394988E-2,2.3E1,3E0,2.0998979E-2,2.1E1,-2.7152433E-3,2E0,2E0,-1.208026E-2,1.0108181E-2,1E0,1E0,7.6563717E-3,2.0967988E-2,1E0,-1.2526768E-2,3.2419793E-2,-7.2283777E-3,1E0,2.3E1,3.8175695E-2,-1.0012957E-2,1E0,2E1,-8.3848955E-3,4.977603E-3,2E0,1E0,1E0,1E0,-8.6859595E-3,1.5364732E-3,2.328984E-2,-9.839316E-4,-4.5705014E-3,2.143958E-2,5.2473076E-2,1.9878466E-2,-1.03065E-2,4.929745E-4,1.6872417E-2,-1.0532771E-2,3.2783845E-3,2.1340443E-2,5.6591224E-2,2.5837604E-2,9.6797785E-3,2.2598365E-3,6.021596E-3,2.4533853E-2,-1.249312E-2,1.8580249E-2,3.0905216E-3,-1.2327853E-2,6.1298865E-3,2.3196107E-2,1.0122401E-2,-1.44631E-2,3.7380747E-2,-7.354391E-3,4.354114E-2,-8.118534E-3,2.3991396E-3,2.9999021E-2,1.4469645E-2,3.175803E-3,-9.214476E-3,3.2879354E-3,4.7586035E-2,8.546914E-3,2.9148271E-2,-1.0709337E-2],"split_indices":[4,16,4,18,4,30,30,0,0,0,0,0,5,0,12,30,12,30,0,5,0,16,18,15,12,18,0,8,0,15,19,0,30,0,0,0,0,0,0,0,5,0,0,14,0,13,0,0,0,0,0,23,4,20,0,14,0,0,0,5,0,0,0,5,5,0,0,15,28,0,0,16,0,0,0,27,0,0,0,27,0,0,0,5,16,11,19,0,0,0,0,0,0,0,0,0,0,0,0,0,0,0,0,0,0,0,0,0,0,0,0,0,0,0,0,0,0,0,0,0,0,0,0,0,0,0,0,0,0],"split_type":[0,0,0,0,0,0,0,0,0,0,0,0,0,0,0,0,0,0,0,0,0,0,0,0,0,0,0,0,0,0,0,0,0,0,0,0,0,0,0,0,0,0,0,0,0,0,0,0,0,0,0,0,0,0,0,0,0,0,0,0,0,0,0,0,0,0,0,0,0,0,0,0,0,0,0,0,0,0,0,0,0,0,0,0,0,0,0,0,0,0,0,0,0,0,0,0,0,0,0,0,0,0,0,0,0,0,0,0,0,0,0,0,0,0,0,0,0,0,0,0,0,0,0,0,0,0,0,0,0],"sum_hessian":[2.812E3,2.121E3,6.91E2,2.074E3,4.7E1,5.67E2,1.24E2,2.007E3,6.7E1,7E0,4E1,2.41E2,3.26E2,1.1E1,1.13E2,1.482E3,5.25E2,5.6E1,1.1E1,2.4E1,1.6E1,1.3E2,1.11E2,2.46E2,8E1,8E0,3E0,1.11E2,2E0,8.9E2,5.92E2,5.09E2,1.6E1,3.8E1,1.8E1,5E0,1.9E1,1E1,6E0,1.11E2,1.9E1,9.8E1,1.3E1,2.25E2,2.1E1,7.5E1,5E0,6E0,2E0,1.1E2,1E0,8.58E2,3.2E1,5.78E2,1.4E1,3.81E2,1.28E2,4E0,1.2E1,2.7E1,1.1E1,1E1,8E0,1.2E1,7E0,3E0,7E0,3.7E1,7.4E1,1.7E1,2E0,9.1E1,7E0,1.2E1,1E0,2.08E2,1.7E1,1.9E1,2E0,6.1E1,1.4E1,1E0,4E0,3E0,3E0,9.7E1,1.3E1,8.26E2,3.2E1,3E0,2.9E1,5.63E2,1.5E1,4E0,1E1,3.64E2,1.7E1,9E0,3E0,2.5E1,2E0,5E0,5E0,7E0,5E0,4E0,3E0,3.2E1,5E0,7E1,4E0,7.6E1,1.5E1,2.02E2,6E0,1.6E1,1E0,6E1,1E0,4E0,1E1,1E0,2E0,1E0,2E0,9.4E1,3E0,1.2E1,1E0],"tree_param":{"num_deleted":"0","num_feature":"32","num_nodes":"129","size_leaf_vector":"1"}},{"base_weights":[-2.596635E-3,-1.0768023E-1,1.15781665E-1,-1.2450065E-1,2.2398189E-1,8.088342E-2,8.1966394E-1,-1.4351836E-1,2.0326523E-1,2.679872E-1,-1.1460462E-2,4.6236493E-2,8.3362836E-1,5.6848075E-2,3.2439584E-1,-1.5861839E-1,1.4021006E-1,2.4873306E-1,-1.1567661E-2,5.9550954E-3,3.1236097E-1,1.9329881E-2,5.656604E-1,1.1661702E0,2.2386009E-1,1.8745342E-2,-9.391209E-3,-1.7380315E-1,1.3426863E-1,-4.590153E-3,2.4362837E-1,9.809053E-2,4.6871713E-1,1.2114713E-2,1.8283432E-2,-8.216246E-3,4.6882442E-1,6.2604874E-1,-1.1191061E-2,4.6667963E-2,6.626753E-2,1.5264756E-2,-9.9281315E-3,-1.8582374E-1,3.3279397E-2,1.6842052E-1,-1.1196823E-2,3.3162868E-1,-1.1891341E-2,-1.5323437E-3,9.014125E-3,3.0415837E-2,1.5863633E-2,-3.407224E-2,5.323383E-1,3.8906347E-2,1.0620831E-1,7.087738E-1,1.8746892E-2,-9.909614E-3,-1.0629176E-3,3.0818381E-3,-1.1132001E-2,-7.9063575E-5,1.1863421E-2,8.320923E-3,2.1535326E-2,-3.0978874E-3,1.8694883E-2,3.905986E-2,1.6532821E-4,8.754008E-3,-1.10708205E-2,2.8223274E-2,4.3964963E-2],"categories":[],"categories_nodes":[],"categories_segments":[],"categories_sizes":[],"default_left":[0,0,0,0,0,0,0,0,0,0,0,0,0,0,0,0,0,0,0,0,0,0,0,0,0,0,0,0,0,0,0,0,0,0,0,0,0,0,0,0,0,0,0,0,0,0,0,0,0,0,0,0,0,0,0,0,0,0,0,0,0,0,0,0,0,0,0,0,0,0,0,0,0,0,0],"id":5,"left_children":[1,3,5,7,9,11,13,15,17,19,-1,21,23,-1,25,27,29,31,-1,-1,33,35,37,39,41,-1,-1,43,45,-1,47,49,51,-1,-1,53,55,57,-1,-1,-1,-1,-1,59,61,63,-1,65,-1,-1,-1,-1,-1,67,69,-1,71,73,-1,-1,-1,-1,-1,-1,-1,-1,-1,-1,-1,-1,-1,-1,-1,-1,-1],"loss_changes":[3.534098E1,8.4238205E0,3.275155E1,8.961576E0,1.5172505E0,3.3187756E1,9.53146E0,5.8274746E0,1.6186762E0,4.0543985E-1,0E0,1.7025734E1,1.1094254E1,0E0,7.431078E-1,5.7471695E0,1.6779798E0,2.3400278E0,0E0,0E0,1.01890564E-1,1.4366778E1,3.0006504E0,9.7091675E-2,7.8302026E-1,0E0,0E0,3.053028E0,8.206519E-1,0E0,2.1125445E0,4.7109696E-1,4.201045E-1,0E0,0E0,1.5308512E1,7.4319468E0,8.975525E-1,0E0,0E0,0E0,0E0,0E0,2.3507805E0,5.0721234E-1,6.90927E-1,0E0,5.994377E-1,0E0,0E0,0E0,0E0,0E0,1.1911553E1,6.5801287E0,0E0,7.608174E-1,5.1260376E-1,0E0,0E0,0E0,0E0,0E0,0E0,0E0,0E0,0E0,0E0,0E0,0E0,0E0,0E0,0E0,0E0,0E0],"parents":[2147483647,0,0,1,1,2,2,3,3,4,4,5,5,6,6,7,7,8,8,9,9,11,11,12,12,14,14,15,15,16,16,17,17,20,20,21,21,22,22,23,23,24,24,27,27,28,28,30,30,31,31,32,32,35,35,36,36,37,37,43,43,44,44,45,45,47,47,53,53,54,54,56,56,57,57],"right_children":[2,4,6,8,10,12,14,16,18,20,-1,22,24,-1,26,28,30,32,-1,-1,34,36,38,40,42,-1,-1,44,46,-1,48,50,52,-1,-1,54,56,58,-1,-1,-1,-1,-1,60,62,64,-1,66,-1,-1,-1,-1,-1,68,70,-1,72,74,-1,-1,-1,-1,-1,-1,-1,-1,-1,-1,-1,-1,-1,-1,-1,-1,-1],"split_conditions":[1E0,1E0,1E0,1E0,2.3E1,1E0,2.1E1,1E0,2.3E1,2E1,-1.1460462E-2,1E0,2.2E1,5.6848075E-2,2.3E1,1E0,2E1,2.1E1,-1.1567661E-2,5.9550954E-3,2.1E1,1E0,2.3E1,2E1,2.3E1,1.8745342E-2,-9.391209E-3,1E0,2.3E1,-4.590153E-3,2.3E1,2E1,2.2E1,1.2114713E-2,1.8283432E-2,1E0,2.1E1,2.1E1,-1.1191061E-2,4.6667963E-2,6.626753E-2,1.5264756E-2,-9.9281315E-3,1E0,2.3E1,2E1,-1.1196823E-2,2.1E1,-1.1891341E-2,-1.5323437E-3,9.014125E-3,3.0415837E-2,1.5863633E-2,1E0,2.2E1,3.8906347E-2,2.3E1,2E1,1.8746892E-2,-9.909614E-3,-1.0629176E-3,3.0818381E-3,-1.1132001E-2,-7.9063575E-5,1.1863421E-2,8.320923E-3,2.1535326E-2,-3.0978874E-3,1.8694883E-2,3.905986E-2,1.6532821E-4,8.754008E-3,-1.10708205E-2,2.8223274E-2,4.3964963E-2],"split_indices":[30,16,17,18,0,16,0,21,0,0,0,15,0,0,0,17,0,0,0,0,0,19,0,0,0,0,0,15,0,0,0,0,0,0,0,18,0,0,0,0,0,0,0,19,0,0,0,0,0,0,0,0,0,13,0,0,0,0,0,0,0,0,0,0,0,0,0,0,0,0,0,0,0,0,0],"split_type":[0,0,0,0,0,0,0,0,0,0,0,0,0,0,0,0,0,0,0,0,0,0,0,0,0,0,0,0,0,0,0,0,0,0,0,0,0,0,0,0,0,0,0,0,0,0,0,0,0,0,0,0,0,0,0,0,0,0,0,0,0,0,0,0,0,0,0,0,0,0,0,0,0,0,0],"sum_hessian":[2.839E3,1.504E3,1.335E3,1.432E3,7.2E1,1.273E3,6.2E1,1.354E3,7.8E1,6.6E1,6E0,1.218E3,5.5E1,3.7E1,2.5E1,1.286E3,6.8E1,7.1E1,7E0,1.6E1,5E1,1.159E3,5.9E1,3.5E1,2E1,2.3E1,2E0,1.223E3,6.3E1,2.1E1,4.7E1,4.3E1,2.8E1,2.4E1,2.6E1,1.093E3,6.6E1,5.5E1,4E0,1.7E1,1.8E1,1.7E1,3E0,1.156E3,6.7E1,5.8E1,5E0,4E1,7E0,1.7E1,2.6E1,1.3E1,1.5E1,1.044E3,4.9E1,3.5E1,3.1E1,4E1,1.5E1,1.075E3,8.1E1,6.1E1,6E0,1.7E1,4.1E1,1.6E1,2.4E1,9.78E2,6.6E1,3.3E1,1.6E1,2.6E1,5E0,2.4E1,1.6E1],"tree_param":{"num_deleted":"0","num_feature":"32","num_nodes":"75","size_leaf_vector":"1"}},{"base_weights":[-1.7424485E-3,-1.18364036E-1,3.449995E-1,-1.2708849E-1,2.5083494E-1,2.666827E-1,7.018001E-1,-1.3541006E-1,2.4854164E-1,6.282741E-2,6.7279685E-1,1.2656392E-1,3.6505133E-1,6.3212234E-1,1.0429702E0,3.3106543E-2,-1.461877E-1,7.0334923E-1,1.6053665E-1,3.0563185E-1,2.052973E-3,6.5756135E-2,2.2012165E-1,7.4063234E-2,2.4247795E-1,2.76937E-1,6.1242205E-1,5.4054093E-1,9.145509E-1,5.3514928E-2,1.3093325E-2,6.236237E-3,4.152289E-1,-1.7476276E-1,-1.0547127E-1,4.9574696E-2,1.9489631E-2,2.3561904E-1,-1.0817851E-2,4.0878773E-1,-7.832584E-3,9.069641E-2,-1.5124506E-1,4.35231E-1,-1.0567504E-2,2.2195731E-1,-1.4534779E-2,2.6477775E-1,-1.0976893E-2,2.36423E-1,5.954991E-1,6.590797E-1,5.7628646E-2,5.609808E-1,-9.916445E-3,1.056485E0,2.8901199E-1,-1.6935868E-2,3.6616814E-1,1.4438601E-1,3.2498766E-2,-1.813749E-1,-6.1641294E-3,2.3217436E-2,-1.5602796E-1,1.454153E-1,3.0864997E-2,-7.498789E-3,2.752678E-2,-3.7521906E-2,1.8735717E-1,-1.1620587E-2,4.889956E-2,1.24062E-2,3.7462402E-2,2.4637744E-1,-9.991695E-3,-1.2863903E-1,7.174932E-2,2.8226474E-1,-1.1575576E-2,2.0299946E-1,6.645085E-1,3.4998715E-2,-1.031729E-2,4.9905887E-1,8.069283E-1,-1.0797099E-2,1.848092E-1,5.8596385E-1,5.9049584E-2,7.352441E-1,1.2524781E0,5.1377773E-2,1.9749232E-2,2.43347E-4,-1.2986504E-2,3.986727E-2,8.0707185E-3,1.7012063E-2,5.18094E-4,-9.452223E-3,-3.9288905E-3,-7.4282275E-3,7.5045885E-3,3.0359227E-4,4.7806706E-2,-8.84439E-3,2.095804E-2,1.0660712E-2,-2.536688E-3,-1.0634638E-2,4.275616E-3,1.1930759E-2,1.9000933E-3,7.434809E-3,-6.2622577E-3,-1.0593972E-2,1.713158E-2,1.3311202E-2,-1.0972447E-2,-7.3596425E-3,1.7657075E-2,9.864039E-3,-2.8048304E-3,1.6768182E-2,3.260563E-3,1.1246507E-2,-9.062795E-3,4.0644567E-2,1.7880162E-2,2.8737906E-2,-2.5464783E-3,4.174698E-2,-7.838124E-3,1.4744544E-2,-9.139982E-3,2.9939128E-2,-1.0026953E-2,-1.2965053E-2,1.7885853E-2,5.1540364E-2,2.3065798E-2,1.4499587E-2,6.598638E-2,-1.0323334E-2,1.4176667E-2],"categories":[],"categories_nodes":[],"categories_segments":[],"categories_sizes":[],"default_left":[0,0,0,0,0,0,0,0,0,0,0,0,0,0,0,0,0,0,0,0,0,0,0,0,0,0,0,0,0,0,0,0,0,0,0,0,0,0,0,0,0,0,0,0,0,0,0,0,0,0,0,0,0,0,0,0,0,0,0,0,0,0,0,0,0,0,0,0,0,0,0,0,0,0,0,0,0,0,0,0,0,0,0,0,0,0,0,0,0,0,0,0,0,0,0,0,0,0,0,0,0,0,0,0,0,0,0,0,0,0,0,0,0,0,0,0,0,0,0,0,0,0,0,0,0,0,0,0,0,0,0,0,0,0,0,0,0,0,0,0,0,0,0,0,0,0,0],"id":6,"left_children":[1,3,5,7,9,11,13,15,17,19,21,23,25,27,29,31,33,35,37,39,41,-1,43,45,47,49,51,53,55,-1,-1,57,59,61,63,-1,-1,65,-1,67,-1,69,71,73,-1,75,77,79,-1,81,83,85,87,89,-1,91,93,95,97,99,-1,101,103,105,107,109,-1,-1,-1,111,113,-1,115,117,-1,119,-1,121,123,125,-1,127,129,-1,-1,131,133,-1,135,137,139,141,143,145,-1,-1,-1,-1,-1,-1,-1,-1,-1,-1,-1,-1,-1,-1,-1,-1,-1,-1,-1,-1,-1,-1,-1,-1,-1,-1,-1,-1,-1,-1,-1,-1,-1,-1,-1,-1,-1,-1,-1,-1,-1,-1,-1,-1,-1,-1,-1,-1,-1,-1,-1,-1,-1],"loss_changes":[1.139131E2,6.8218727E0,1.9624763E1,6.4728622E0,3.8449984E0,7.98946E0,2.3597603E0,3.6663208E0,1.6882274E0,5.1584315E-1,4.0719876E0,1.4547479E0,7.284939E0,2.2990875E0,1.466484E-1,1.2500755E0,2.1863518E0,2.4597049E-1,1.1546029E0,3.9784813E-1,4.0779445E-1,0E0,1.020122E0,2.2045505E0,8.3084345E-1,3.137392E0,2.2658157E0,1.3798599E0,1.9142952E0,0E0,0E0,9.653451E-1,4.1478777E-1,1.238533E0,5.1043863E0,0E0,0E0,1.0463934E0,0E0,5.5778813E-1,0E0,2.4250995E-1,1.9006062E-1,9.201238E-1,0E0,6.981466E-1,1.0528404E0,6.902075E-1,0E0,3.1130524E0,2.490079E0,1.537323E0,3.1825095E-1,9.9366E-1,0E0,3.3834457E-1,1.3080293E-1,5.782661E-1,4.8929328E-1,1.2772112E-1,0E0,8.28743E-1,9.790873E-1,3.545175E0,6.829211E0,3.8318062E-1,0E0,0E0,0E0,2.1215595E-1,7.514438E-2,0E0,8.813969E-2,3.6885583E-1,0E0,6.131263E-1,0E0,4.6316797E-1,9.900366E-1,7.849016E-1,0E0,1.8272886E0,4.3793917E-1,0E0,0E0,1.7778883E0,1.2376518E0,0E0,2.96708E-1,9.0647125E-1,5.681613E-1,3.3410263E-1,3.2928276E-1,2.3812026E-1,0E0,0E0,0E0,0E0,0E0,0E0,0E0,0E0,0E0,0E0,0E0,0E0,0E0,0E0,0E0,0E0,0E0,0E0,0E0,0E0,0E0,0E0,0E0,0E0,0E0,0E0,0E0,0E0,0E0,0E0,0E0,0E0,0E0,0E0,0E0,0E0,0E0,0E0,0E0,0E0,0E0,0E0,0E0,0E0,0E0,0E0,0E0,0E0,0E0,0E0,0E0,0E0,0E0],"parents":[2147483647,0,0,1,1,2,2,3,3,4,4,5,5,6,6,7,7,8,8,9,9,10,10,11,11,12,12,13,13,14,14,15,15,16,16,17,17,18,18,19,19,20,20,22,22,23,23,24,24,25,25,26,26,27,27,28,28,31,31,32,32,33,33,34,34,37,37,39,39,41,41,42,42,43,43,45,45,46,46,47,47,49,49,50,50,51,51,52,52,53,53,55,55,56,56,57,57,58,58,59,59,61,61,62,62,63,63,64,64,65,65,69,69,70,70,72,72,73,73,75,75,77,77,78,78,79,79,81,81,82,82,85,85,86,86,88,88,89,89,90,90,91,91,92,92,93,93],"right_children":[2,4,6,8,10,12,14,16,18,20,22,24,26,28,30,32,34,36,38,40,42,-1,44,46,48,50,52,54,56,-1,-1,58,60,62,64,-1,-1,66,-1,68,-1,70,72,74,-1,76,78,80,-1,82,84,86,88,90,-1,92,94,96,98,100,-1,102,104,106,108,110,-1,-1,-1,112,114,-1,116,118,-1,120,-1,122,124,126,-1,128,130,-1,-1,132,134,-1,136,138,140,142,144,146,-1,-1,-1,-1,-1,-1,-1,-1,-1,-1,-1,-1,-1,-1,-1,-1,-1,-1,-1,-1,-1,-1,-1,-1,-1,-1,-1,-1,-1,-1,-1,-1,-1,-1,-1,-1,-1,-1,-1,-1,-1,-1,-1,-1,-1,-1,-1,-1,-1,-1,-1,-1,-1],"split_conditions":[2E0,1E0,3E0,1E0,1E0,1E0,1E0,1E0,1E0,2E0,2E1,4E0,2E0,1E0,2.2E1,1E0,1E0,2E0,2.3E1,2E0,2.2E1,6.5756135E-2,2.3E1,2E0,1E0,1E0,1E0,1E0,2.1E1,5.3514928E-2,1.3093325E-2,1E0,1E0,1E0,2E1,4.9574696E-2,1.9489631E-2,1E0,-1.0817851E-2,1E0,-7.832584E-3,3E0,4E0,3E0,-1.0567504E-2,2.3E1,2.1E1,1E0,-1.0976893E-2,1E0,2.3E1,2E1,2E1,1E0,-9.916445E-3,2E1,2.2E1,1E0,2E0,2E0,3.2498766E-2,2E0,3E0,1E0,1E0,2.1E1,3.0864997E-2,-7.498789E-3,2.752678E-2,2E1,2E0,-1.1620587E-2,2.3E1,2.2E1,3.7462402E-2,1E0,-9.991695E-3,1E0,2.2E1,2E0,-1.1575576E-2,1E0,3E0,3.4998715E-2,-1.031729E-2,1E0,1E0,-1.0797099E-2,4E0,1E0,2E1,2E0,1E0,2E0,1.9749232E-2,2.43347E-4,-1.2986504E-2,3.986727E-2,8.0707185E-3,1.7012063E-2,5.18094E-4,-9.452223E-3,-3.9288905E-3,-7.4282275E-3,7.5045885E-3,3.0359227E-4,4.7806706E-2,-8.84439E-3,2.095804E-2,1.0660712E-2,-2.536688E-3,-1.0634638E-2,4.275616E-3,1.1930759E-2,1.9000933E-3,7.434809E-3,-6.2622577E-3,-1.0593972E-2,1.713158E-2,1.3311202E-2,-1.0972447E-2,-7.3596425E-3,1.7657075E-2,9.864039E-3,-2.8048304E-3,1.6768182E-2,3.260563E-3,1.1246507E-2,-9.062795E-3,4.0644567E-2,1.7880162E-2,2.8737906E-2,-2.5464783E-3,4.174698E-2,-7.838124E-3,1.4744544E-2,-9.139982E-3,2.9939128E-2,-1.0026953E-2,-1.2965053E-2,1.7885853E-2,5.1540364E-2,2.3065798E-2,1.4499587E-2,6.598638E-2,-1.0323334E-2,1.4176667E-2],"split_indices":[4,17,4,16,30,30,17,4,4,3,0,3,5,16,0,14,30,3,0,5,0,0,0,3,23,15,12,12,0,0,0,15,30,21,0,0,0,30,0,4,0,3,3,3,0,0,0,22,0,14,0,0,0,10,0,0,0,26,3,3,0,5,3,20,12,0,0,0,0,0,5,0,0,0,0,27,0,14,0,5,0,10,3,0,0,13,27,0,3,29,0,3,30,3,0,0,0,0,0,0,0,0,0,0,0,0,0,0,0,0,0,0,0,0,0,0,0,0,0,0,0,0,0,0,0,0,0,0,0,0,0,0,0,0,0,0,0,0,0,0,0,0,0,0,0,0,0],"split_type":[0,0,0,0,0,0,0,0,0,0,0,0,0,0,0,0,0,0,0,0,0,0,0,0,0,0,0,0,0,0,0,0,0,0,0,0,0,0,0,0,0,0,0,0,0,0,0,0,0,0,0,0,0,0,0,0,0,0,0,0,0,0,0,0,0,0,0,0,0,0,0,0,0,0,0,0,0,0,0,0,0,0,0,0,0,0,0,0,0,0,0,0,0,0,0,0,0,0,0,0,0,0,0,0,0,0,0,0,0,0,0,0,0,0,0,0,0,0,0,0,0,0,0,0,0,0,0,0,0,0,0,0,0,0,0,0,0,0,0,0,0,0,0,0,0,0,0],"sum_hessian":[2.815E3,2.107E3,7.08E2,2.059E3,4.8E1,5.82E2,1.26E2,2.015E3,4.4E1,3.4E1,1.4E1,2.41E2,3.41E2,1.07E2,1.9E1,1.21E2,1.894E3,6E0,3.8E1,6E0,2.8E1,5E0,9E0,1.67E2,7.4E1,2.53E2,8.8E1,8.3E1,2.4E1,1.8E1,1E0,1.14E2,7E0,1.111E3,7.83E2,2E0,4E0,3.2E1,6E0,5E0,1E0,1.8E1,1E1,6E0,3E0,6.2E1,1.05E2,7.1E1,3E0,2.26E2,2.7E1,8.1E1,7E0,8.1E1,2E0,1.9E1,5E0,1.08E2,6E0,4E0,3E0,1.069E3,4.2E1,2.21E2,5.62E2,2.7E1,5E0,1E0,4E0,8E0,1E1,7E0,3E0,3E0,3E0,5.9E1,3E0,4.5E1,6E1,6.9E1,2E0,2.11E2,1.5E1,2.4E1,3E0,4.1E1,4E1,2E0,5E0,7.7E1,4E0,9E0,1E1,2E0,3E0,1E2,8E0,1E0,5E0,1E0,3E0,9.94E2,7.5E1,2.2E1,2E1,2.18E2,3E0,5.43E2,1.9E1,2E1,7E0,3E0,5E0,7E0,3E0,2E0,1E0,2E0,1E0,5.7E1,2E0,4.4E1,1E0,3E1,3E1,5.5E1,1.4E1,2E2,1.1E1,9E0,6E0,3.6E1,5E0,3.9E1,1E0,4E0,1E0,7.6E1,1E0,2E0,2E0,3E0,6E0,1E0,9E0,1E0,1E0],"tree_param":{"num_deleted":"0","num_feature":"32","num_nodes":"147","size_leaf_vector":"1"}},{"base_weights":[2.4686047E-5,-1.0732836E-1,3.27742E-1,-1.1672044E-1,2.881584E-1,2.4204952E-1,6.994089E-1,-1.2509343E-1,2.85561E-1,6.457661E-1,1.16447486E-1,3.3739224E-1,1.0683162E-1,7.436614E-1,1.4904879E-1,-1.3396181E-1,1.5247355E-1,3.5536477E-1,-1.0206154E-2,6.3016295E-2,2.5184563E-1,3.9468607E-1,5.691818E-2,3.7130976E-1,-4.7750138E-2,1.6347416E-2,2.0185511E-1,6.685341E-1,1.0513462E0,-6.420231E-2,2.0889528E-2,-1.4288643E-1,6.763084E-2,2.4336244E-1,-1.11405365E-2,6.780481E-1,2.7367264E-1,4.4799995E-1,-1.0171222E-2,-7.3113204E-3,2.6605694E-2,-1.1547826E-1,1.9554359E-1,4.4584572E-1,1.9687843E-1,8.354483E-2,-2.0567085E-1,-8.065274E-2,6.40662E-2,3.3511668E-1,6.2815666E-2,5.818604E-1,9.8613584E-1,7.254303E-1,1.311314E0,1.6425598E-1,-1.3830501E-2,-1.5081652E-1,5.536745E-2,2.1688083E-1,-2.2805466E-1,4.3479332E-1,1.6139334E-1,4.7922205E-2,1.8710045E-2,4.1458195E-1,4.275312E-3,2.8418002E-1,3.9868485E-2,-7.701416E-2,-9.619248E-3,2.6173732E-1,-1.5668845E-2,4.0457126E-1,9.3391097E-1,3.6694863E-1,1.07368514E-1,2.0382513E-1,-9.005869E-3,-2.545111E-1,-7.662425E-2,1.2449937E-1,-1.6983636E-1,3.672818E-4,2.11833E-1,2.6515907E-1,3.47154E-2,1.07539564E-1,-1.1507559E-2,4.4613016E-1,7.312118E-1,5.0558098E-2,1.27659915E-2,4.6786223E-2,4.4154528E-1,7.473297E-2,1.6208673E-2,1.3151402E-2,2.1827975E-3,-7.965594E-3,1.3894954E-4,1.2883638E-2,-2.3446276E-3,3.938854E-3,1.9525127E-2,-1.29309E-2,-5.7749315E-3,3.5123695E-2,5.6381817E-3,8.9900754E-4,1.27070965E-2,1.4490515E-2,2.6142487E-2,-1.2938711E-2,8.407343E-3,-1.0953323E-2,2.6464596E-2,-4.575091E-3,-2.066431E-3,6.060142E-3,2.027469E-2,-6.633377E-3,2.3373857E-3,1.7617678E-2,3.7023824E-2,4.812492E-2,1.2627474E-2,2.1781323E-2,-1.1135141E-2,5.4135907E-4,1.2683913E-2,-1.8750891E-3,1.9709788E-2,1.2204906E-3,-7.743675E-3,-1.6569387E-2,-6.3366117E-3,4.5638126E-3,-1.0949167E-2,1.9702674E-3,1.9750552E-2,-9.721118E-3,5.4024896E-3,-2.0805667E-3,8.412558E-3,1.302277E-2,-1.1577491E-2,-2.7502776E-4,1.8385975E-2,2.7868084E-3,1.5717996E-2,2.4012802E-2,-9.585897E-3,4.1343223E-2,-2.31691E-3,-1.6196478E-2,3.1155635E-2],"categories":[],"categories_nodes":[],"categories_segments":[],"categories_sizes":[],"default_left":[0,0,0,0,0,0,0,0,0,0,0,0,0,0,0,0,0,0,0,0,0,0,0,0,0,0,0,0,0,0,0,0,0,0,0,0,0,0,0,0,0,0,0,0,0,0,0,0,0,0,0,0,0,0,0,0,0,0,0,0,0,0,0,0,0,0,0,0,0,0,0,0,0,0,0,0,0,0,0,0,0,0,0,0,0,0,0,0,0,0,0,0,0,0,0,0,0,0,0,0,0,0,0,0,0,0,0,0,0,0,0,0,0,0,0,0,0,0,0,0,0,0,0,0,0,0,0,0,0,0,0,0,0,0,0,0,0,0,0,0,0,0,0,0,0,0,0,0,0,0,0,0,0,0,0,0,0],"id":7,"left_children":[1,3,5,7,9,11,13,15,17,19,21,23,25,27,29,31,33,35,-1,-1,37,39,41,43,45,47,49,51,53,55,-1,57,59,61,-1,63,65,67,-1,-1,-1,69,71,73,75,77,79,81,83,85,87,89,91,93,95,97,-1,99,101,103,105,107,109,-1,-1,111,113,115,-1,117,-1,119,121,123,125,127,129,131,133,135,137,139,141,143,145,147,-1,149,-1,151,153,-1,-1,-1,155,-1,-1,-1,-1,-1,-1,-1,-1,-1,-1,-1,-1,-1,-1,-1,-1,-1,-1,-1,-1,-1,-1,-1,-1,-1,-1,-1,-1,-1,-1,-1,-1,-1,-1,-1,-1,-1,-1,-1,-1,-1,-1,-1,-1,-1,-1,-1,-1,-1,-1,-1,-1,-1,-1,-1,-1,-1,-1,-1,-1,-1,-1],"loss_changes":[1.0009123E2,7.993685E0,2.2188751E1,7.0889397E0,2.9950595E0,7.3381996E0,3.0796356E0,5.0715637E0,1.5423548E0,3.5559945E0,5.572524E-1,4.3938637E0,2.0430539E0,2.0941162E0,6.5722734E-1,3.5881538E0,2.2372108E0,8.1614304E-1,0E0,0E0,1.0734693E0,5.238275E-1,7.395368E-1,3.9166565E0,5.977402E-1,5.745009E-1,2.1282692E0,2.1789818E0,9.127407E-1,3.8511896E-1,0E0,3.0033264E0,3.8006003E0,7.457807E-1,0E0,2.3773217E-1,1.2129667E0,2.312733E-1,0E0,0E0,0E0,2.6597708E-2,2.4177712E-1,3.9532623E0,1.3915603E0,1.7994805E-1,6.2432945E-2,7.7128905E-1,7.811668E-1,1.2984586E0,7.8470224E-1,1.3157768E0,1.0762024E-1,3.032279E-1,1.5063343E0,3.6164917E-2,0E0,2.3909264E0,1.5429757E0,1.3359723E0,6.9892645E-2,1.2138028E0,5.0088274E-1,0E0,0E0,1.3215637E-1,5.607881E-1,9.79412E-1,0E0,1.9053519E-3,0E0,2.1348852E-1,4.2715184E-2,3.2471352E0,6.857586E-2,1.3928871E0,8.871244E-1,3.3637398E-1,5.252309E-2,4.6411335E-2,1.3949879E-1,2.8368053E-1,2.191385E-1,4.2280552E-1,5.99267E-1,1.4177296E0,0E0,5.288926E-1,0E0,1.0715961E0,2.7901802E0,0E0,0E0,0E0,1.1747415E0,0E0,0E0,0E0,0E0,0E0,0E0,0E0,0E0,0E0,0E0,0E0,0E0,0E0,0E0,0E0,0E0,0E0,0E0,0E0,0E0,0E0,0E0,0E0,0E0,0E0,0E0,0E0,0E0,0E0,0E0,0E0,0E0,0E0,0E0,0E0,0E0,0E0,0E0,0E0,0E0,0E0,0E0,0E0,0E0,0E0,0E0,0E0,0E0,0E0,0E0,0E0,0E0,0E0,0E0,0E0,0E0,0E0,0E0,0E0,0E0,0E0,0E0],"parents":[2147483647,0,0,1,1,2,2,3,3,4,4,5,5,6,6,7,7,8,8,9,9,10,10,11,11,12,12,13,13,14,14,15,15,16,16,17,17,20,20,21,21,22,22,23,23,24,24,25,25,26,26,27,27,28,28,29,29,31,31,32,32,33,33,35,35,36,36,37,37,41,41,42,42,43,43,44,44,45,45,46,46,47,47,48,48,49,49,50,50,51,51,52,52,53,53,54,54,55,55,57,57,58,58,59,59,60,60,61,61,62,62,65,65,66,66,67,67,69,69,71,71,72,72,73,73,74,74,75,75,76,76,77,77,78,78,79,79,80,80,81,81,82,82,83,83,84,84,85,85,87,87,89,89,90,90,94,94],"right_children":[2,4,6,8,10,12,14,16,18,20,22,24,26,28,30,32,34,36,-1,-1,38,40,42,44,46,48,50,52,54,56,-1,58,60,62,-1,64,66,68,-1,-1,-1,70,72,74,76,78,80,82,84,86,88,90,92,94,96,98,-1,100,102,104,106,108,110,-1,-1,112,114,116,-1,118,-1,120,122,124,126,128,130,132,134,136,138,140,142,144,146,148,-1,150,-1,152,154,-1,-1,-1,156,-1,-1,-1,-1,-1,-1,-1,-1,-1,-1,-1,-1,-1,-1,-1,-1,-1,-1,-1,-1,-1,-1,-1,-1,-1,-1,-1,-1,-1,-1,-1,-1,-1,-1,-1,-1,-1,-1,-1,-1,-1,-1,-1,-1,-1,-1,-1,-1,-1,-1,-1,-1,-1,-1,-1,-1,-1,-1,-1,-1,-1,-1],"split_conditions":[2E0,1E0,3E0,1E0,1E0,1E0,1E0,1E0,2.3E1,2E1,2E0,1E0,2.1E1,1E0,4E0,1E0,2.3E1,1E0,-1.0206154E-2,6.3016295E-2,2.3E1,1E0,3E0,2.2E1,3E0,2E1,2.2E1,1E0,2E1,2.1E1,2.0889528E-2,1E0,2.2E1,1E0,-1.11405365E-2,2E0,2.1E1,4E0,-1.0171222E-2,-7.3113204E-3,2.6605694E-2,2.1E1,2.2E1,1E0,2E0,2.1E1,2.1E1,2E0,4E0,1E0,2.3E1,3E0,2.1E1,2E0,2.2E1,1E0,-1.3830501E-2,1E0,1E0,3E0,1E0,2.2E1,2E1,4.7922205E-2,1.8710045E-2,3E0,2.2E1,1E0,3.9868485E-2,2E1,-9.619248E-3,2E1,4E0,1E0,2.1E1,2.3E1,4E0,2E0,2.3E1,4E0,2.2E1,1E0,1E0,1E0,1E0,3E0,3.47154E-2,1E0,-1.1507559E-2,1E0,1E0,5.0558098E-2,1.27659915E-2,4.6786223E-2,3E0,7.473297E-2,1.6208673E-2,1.3151402E-2,2.1827975E-3,-7.965594E-3,1.3894954E-4,1.2883638E-2,-2.3446276E-3,3.938854E-3,1.9525127E-2,-1.29309E-2,-5.7749315E-3,3.5123695E-2,5.6381817E-3,8.9900754E-4,1.27070965E-2,1.4490515E-2,2.6142487E-2,-1.2938711E-2,8.407343E-3,-1.0953323E-2,2.6464596E-2,-4.575091E-3,-2.066431E-3,6.060142E-3,2.027469E-2,-6.633377E-3,2.3373857E-3,1.7617678E-2,3.7023824E-2,4.812492E-2,1.2627474E-2,2.1781323E-2,-1.1135141E-2,5.4135907E-4,1.2683913E-2,-1.8750891E-3,1.9709788E-2,1.2204906E-3,-7.743675E-3,-1.6569387E-2,-6.3366117E-3,4.5638126E-3,-1.0949167E-2,1.9702674E-3,1.9750552E-2,-9.721118E-3,5.4024896E-3,-2.0805667E-3,8.412558E-3,1.302277E-2,-1.1577491E-2,-2.7502776E-4,1.8385975E-2,2.7868084E-3,1.5717996E-2,2.4012802E-2,-9.585897E-3,4.1343223E-2,-2.31691E-3,-1.6196478E-2,3.1155635E-2],"split_indices":[4,17,4,16,31,31,31,18,0,0,3,11,0,16,3,21,0,4,0,0,0,4,3,0,3,0,0,17,0,0,0,19,0,31,0,3,0,3,0,0,0,0,0,16,3,0,0,3,3,18,0,3,0,3,0,16,0,20,31,3,31,0,0,0,0,3,0,4,0,0,0,0,3,15,0,0,3,3,0,3,0,15,17,17,19,3,0,18,0,12,15,0,0,0,3,0,0,0,0,0,0,0,0,0,0,0,0,0,0,0,0,0,0,0,0,0,0,0,0,0,0,0,0,0,0,0,0,0,0,0,0,0,0,0,0,0,0,0,0,0,0,0,0,0,0,0,0,0,0,0,0,0,0,0,0,0,0],"split_type":[0,0,0,0,0,0,0,0,0,0,0,0,0,0,0,0,0,0,0,0,0,0,0,0,0,0,0,0,0,0,0,0,0,0,0,0,0,0,0,0,0,0,0,0,0,0,0,0,0,0,0,0,0,0,0,0,0,0,0,0,0,0,0,0,0,0,0,0,0,0,0,0,0,0,0,0,0,0,0,0,0,0,0,0,0,0,0,0,0,0,0,0,0,0,0,0,0,0,0,0,0,0,0,0,0,0,0,0,0,0,0,0,0,0,0,0,0,0,0,0,0,0,0,0,0,0,0,0,0,0,0,0,0,0,0,0,0,0,0,0,0,0,0,0,0,0,0,0,0,0,0,0,0,0,0,0,0],"sum_hessian":[2.843E3,2.142E3,7.01E2,2.093E3,4.9E1,5.71E2,1.3E2,2.051E3,4.2E1,1.5E1,3.4E1,3.34E2,2.37E2,1.2E2,1E1,1.988E3,6.3E1,3.7E1,5E0,5E0,1E1,5E0,2.9E1,3.07E2,2.7E1,1.22E2,1.15E2,9.9E1,2.1E1,6E0,4E0,1.904E3,8.4E1,5.1E1,1.2E1,6E0,3.1E1,7E0,3E0,1E0,4E0,1.3E1,1.6E1,2.14E2,9.3E1,1.5E1,1.2E1,4E1,8.2E1,5.8E1,5.7E1,8E1,1.9E1,1.1E1,1E1,3E0,3E0,1.831E3,7.3E1,5.6E1,2.8E1,1.4E1,3.7E1,2E0,4E0,2E1,1.1E1,6E0,1E0,1E1,3E0,1.2E1,4E0,1.99E2,1.5E1,3.1E1,6.2E1,6E0,9E0,8E0,4E0,1.2E1,2.8E1,5.8E1,2.4E1,5E1,8E0,5E1,7E0,4.4E1,3.6E1,1.8E1,1E0,5E0,6E0,8E0,2E0,1E0,2E0,1.735E3,9.6E1,2.4E1,4.9E1,3.2E1,2.4E1,2.1E1,7E0,7E0,7E0,1.5E1,2.2E1,1.1E1,9E0,4E0,7E0,2E0,4E0,6E0,4E0,7E0,5E0,1E0,3E0,1.74E2,2.5E1,1.4E1,1E0,2.8E1,3E0,3.8E1,2.4E1,3E0,3E0,8E0,1E0,4E0,4E0,2E0,2E0,1E1,2E0,2.6E1,2E0,4.7E1,1.1E1,2.2E1,2E0,1.4E1,3.6E1,4.1E1,9E0,4.2E1,2E0,3.2E1,4E0,1E0,5E0],"tree_param":{"num_deleted":"0","num_feature":"32","num_nodes":"157","size_leaf_vector":"1"}},{"base_weights":[4.6883584E-3,-9.92779E-2,3.173178E-1,-1.0926642E-1,2.7773243E-1,2.4269475E-1,6.583025E-1,-1.19577244E-1,2.1513748E-1,1.4445159E-1,6.235179E-1,1.0391912E-1,3.4531835E-1,5.9509283E-1,9.3006206E-1,-1.2868243E-1,2.3864508E-1,3.3997595E-1,-1.0766664E-2,1.8540049E-1,-9.373025E-3,5.7974994E-2,3.2320628E-1,-5.2017026E-2,1.3874248E-1,4.4263136E-1,1.1740503E-1,4.948669E-1,8.5304034E-1,1.0087233E0,-1.8045623E-2,-1.3658386E-1,5.571211E-2,6.3332564E-1,1.5966624E-1,2.1473686E-1,7.1867174E-1,3.5602134E-1,1.2605606E-1,4.5409408E-1,-8.859631E-3,-1.0234954E-1,2.4302836E-1,1.015535E-1,3.1434807E-1,3.929114E-1,7.788367E-1,1.4742671E-1,-1.2501267E-2,5.1905763E-1,3.787105E-2,1.3863735E-1,1.0023177E0,1.0342658E0,1.2446842E-2,-1.4452821E-1,3.2321658E-2,2.0353825E-1,-1.892829E-1,4.6324793E-2,1.9059313E-2,2.7242646E-1,-4.764329E-2,1.3482422E-1,2.1650057E-2,5.120585E-2,3.5419405E-1,-7.1285367E-3,4.361667E-1,-7.270009E-2,2.3449087E-1,2.1583991E-1,3.4897592E-2,-1.3102098E-1,8.195877E-2,1.0322885E-1,1.9750904E-2,7.113403E-2,3.12551E-1,1.4095137E-1,2.9847313E-2,3.5343397E-1,8.6939687E-1,2.6982171E-2,4.697268E-2,3.1029585E-1,6.623342E-2,5.318538E-1,-1.03766E-2,-1.333331E-2,1.6489232E-2,5.3964637E-2,1.4050022E-2,1.0530096E0,1.5668385E-2,8.065571E-1,6.375046E-2,-7.525413E-3,2.714943E-3,6.4876946E-3,-6.655264E-3,4.463282E-4,2.0278867E-2,-1.250934E-2,2.7635745E-3,2.9437039E-2,8.903253E-3,-1.2421163E-2,1.999265E-3,4.996172E-3,2.0781167E-2,8.009274E-3,3.7956137E-2,2.6378578E-2,5.3984066E-3,-7.0266235E-3,7.7515207E-3,1.5153954E-2,-9.085918E-4,-1.0499361E-2,2.4062512E-2,-8.11876E-3,4.4789673E-3,7.951661E-3,-7.585335E-3,1.5087328E-2,-1.0918602E-3,4.3265442E-3,-1.2678186E-2,1.965615E-2,2.2800288E-3,-7.758385E-4,1.2132319E-2,1.8973572E-2,-5.3565702E-3,4.4816006E-2,1.2311786E-2,1.7510774E-2,-2.335772E-3,1.444959E-3,2.1115726E-2,2.769207E-2,7.0536433E-4,-3.2772168E-3,1.3300014E-2,3.3767115E-2,6.399908E-2,4.4962768E-2,9.890567E-3],"categories":[],"categories_nodes":[],"categories_segments":[],"categories_sizes":[],"default_left":[0,0,0,0,0,0,0,0,0,0,0,0,0,0,0,0,0,0,0,0,0,0,0,0,0,0,0,0,0,0,0,0,0,0,0,0,0,0,0,0,0,0,0,0,0,0,0,0,0,0,0,0,0,0,0,0,0,0,0,0,0,0,0,0,0,0,0,0,0,0,0,0,0,0,0,0,0,0,0,0,0,0,0,0,0,0,0,0,0,0,0,0,0,0,0,0,0,0,0,0,0,0,0,0,0,0,0,0,0,0,0,0,0,0,0,0,0,0,0,0,0,0,0,0,0,0,0,0,0,0,0,0,0,0,0,0,0,0,0,0,0,0,0,0,0,0,0,0,0],"id":8,"left_children":[1,3,5,7,9,11,13,15,17,19,21,23,25,27,29,31,33,35,-1,37,-1,-1,39,41,43,45,47,49,51,53,-1,55,57,59,61,63,65,67,69,71,-1,73,75,77,79,81,83,85,-1,87,89,91,93,95,-1,97,99,101,103,-1,-1,105,107,109,-1,-1,111,-1,113,115,117,119,-1,121,123,125,-1,127,129,131,-1,133,135,-1,-1,137,139,141,-1,-1,-1,143,-1,145,-1,147,-1,-1,-1,-1,-1,-1,-1,-1,-1,-1,-1,-1,-1,-1,-1,-1,-1,-1,-1,-1,-1,-1,-1,-1,-1,-1,-1,-1,-1,-1,-1,-1,-1,-1,-1,-1,-1,-1,-1,-1,-1,-1,-1,-1,-1,-1,-1,-1,-1,-1,-1,-1,-1],"loss_changes":[9.181974E1,8.013792E0,1.7779182E1,6.9362316E0,2.4446936E0,8.224274E0,1.6109352E0,6.563856E0,3.5125241E0,5.920041E-1,2.0396662E0,1.3539119E0,7.333618E0,2.292427E0,2.598154E0,2.8545494E0,1.4574497E0,2.21705E0,0E0,3.2976103E-1,0E0,0E0,8.009194E-1,7.079911E-1,1.2937877E0,3.5888367E0,1.1509789E0,8.426361E-1,2.8470783E0,1.5007782E-1,0E0,2.519287E0,2.9720762E0,2.3819065E-1,1.0181588E0,6.218622E-1,9.7319984E-1,4.2182314E-1,6.42058E-1,3.7225544E-1,0E0,2.2211373E-1,1.0795933E-1,1.0624819E0,1.6309152E0,3.5488625E0,6.071663E-1,1.2224927E0,0E0,7.98399E-1,5.3243524E-1,5.7161525E-2,4.7327805E-1,6.801987E-2,0E0,2.1364708E0,1.3872935E0,2.0016575E0,4.755522E-1,0E0,0E0,7.309058E-1,2.914383E-1,2.5247264E-1,0E0,0E0,4.2831695E-1,0E0,1.830306E-1,1.9170931E-1,3.347714E-1,7.791699E-1,0E0,2.5663167E-1,1.321842E-1,1.3072842E-1,0E0,7.6684046E-1,4.337566E-1,3.6974174E-1,0E0,2.3311195E0,3.0957222E-2,0E0,0E0,4.5816493E-1,8.3861244E-1,8.232193E-1,0E0,0E0,0E0,1.4413562E-1,0E0,9.3569183E-1,0E0,5.557022E-1,0E0,0E0,0E0,0E0,0E0,0E0,0E0,0E0,0E0,0E0,0E0,0E0,0E0,0E0,0E0,0E0,0E0,0E0,0E0,0E0,0E0,0E0,0E0,0E0,0E0,0E0,0E0,0E0,0E0,0E0,0E0,0E0,0E0,0E0,0E0,0E0,0E0,0E0,0E0,0E0,0E0,0E0,0E0,0E0,0E0,0E0,0E0,0E0,0E0,0E0,0E0,0E0,0E0],"parents":[2147483647,0,0,1,1,2,2,3,3,4,4,5,5,6,6,7,7,8,8,9,9,10,10,11,11,12,12,13,13,14,14,15,15,16,16,17,17,19,19,22,22,23,23,24,24,25,25,26,26,27,27,28,28,29,29,31,31,32,32,33,33,34,34,35,35,36,36,37,37,38,38,39,39,41,41,42,42,43,43,44,44,45,45,46,46,47,47,49,49,50,50,51,51,52,52,53,53,55,55,56,56,57,57,58,58,61,61,62,62,63,63,66,66,68,68,69,69,70,70,71,71,73,73,74,74,75,75,77,77,78,78,79,79,81,81,82,82,85,85,86,86,87,87,91,91,93,93,95,95],"right_children":[2,4,6,8,10,12,14,16,18,20,22,24,26,28,30,32,34,36,-1,38,-1,-1,40,42,44,46,48,50,52,54,-1,56,58,60,62,64,66,68,70,72,-1,74,76,78,80,82,84,86,-1,88,90,92,94,96,-1,98,100,102,104,-1,-1,106,108,110,-1,-1,112,-1,114,116,118,120,-1,122,124,126,-1,128,130,132,-1,134,136,-1,-1,138,140,142,-1,-1,-1,144,-1,146,-1,148,-1,-1,-1,-1,-1,-1,-1,-1,-1,-1,-1,-1,-1,-1,-1,-1,-1,-1,-1,-1,-1,-1,-1,-1,-1,-1,-1,-1,-1,-1,-1,-1,-1,-1,-1,-1,-1,-1,-1,-1,-1,-1,-1,-1,-1,-1,-1,-1,-1,-1,-1,-1,-1],"split_conditions":[2E0,1E0,3E0,1E0,1E0,1E0,1E0,1E0,2.3E1,2.3E1,2E1,2E1,2.2E1,1E0,3E0,1E0,1E0,1E0,-1.0766664E-2,2E0,-9.373025E-3,5.7974994E-2,2.3E1,1E0,1E0,1E0,2.3E1,1E0,1E0,2.2E1,-1.8045623E-2,1E0,2.2E1,2E0,2.1E1,2.1E1,2.1E1,1E0,3E0,3E0,-8.859631E-3,1E0,2E0,1E0,4E0,1E0,2E1,2E0,-1.2501267E-2,1E0,2E1,2.2E1,2.1E1,4E0,1.2446842E-2,1E0,2.2E1,3E0,4E0,4.6324793E-2,1.9059313E-2,1E0,2.2E1,3E0,2.1650057E-2,5.120585E-2,4E0,-7.1285367E-3,2E0,2E0,2.2E1,2.2E1,3.4897592E-2,3E0,2E0,2E0,1.9750904E-2,1E0,2.2E1,2.1E1,2.9847313E-2,1E0,2.1E1,2.6982171E-2,4.697268E-2,1E0,1E0,1E0,-1.03766E-2,-1.333331E-2,1.6489232E-2,2E0,1.4050022E-2,2E1,1.5668385E-2,3E0,6.375046E-2,-7.525413E-3,2.714943E-3,6.4876946E-3,-6.655264E-3,4.463282E-4,2.0278867E-2,-1.250934E-2,2.7635745E-3,2.9437039E-2,8.903253E-3,-1.2421163E-2,1.999265E-3,4.996172E-3,2.0781167E-2,8.009274E-3,3.7956137E-2,2.6378578E-2,5.3984066E-3,-7.0266235E-3,7.7515207E-3,1.5153954E-2,-9.085918E-4,-1.0499361E-2,2.4062512E-2,-8.11876E-3,4.4789673E-3,7.951661E-3,-7.585335E-3,1.5087328E-2,-1.0918602E-3,4.3265442E-3,-1.2678186E-2,1.965615E-2,2.2800288E-3,-7.758385E-4,1.2132319E-2,1.8973572E-2,-5.3565702E-3,4.4816006E-2,1.2311786E-2,1.7510774E-2,-2.335772E-3,1.444959E-3,2.1115726E-2,2.769207E-2,7.0536433E-4,-3.2772168E-3,1.3300014E-2,3.3767115E-2,6.399908E-2,4.4962768E-2,9.890567E-3],"split_indices":[4,17,4,18,30,30,17,16,0,0,0,0,0,16,5,21,4,30,0,3,0,0,0,15,18,15,0,10,30,0,0,20,0,3,0,0,0,4,3,3,0,14,5,17,3,16,0,3,0,29,0,0,0,3,0,15,0,3,3,0,0,5,0,5,0,0,3,0,5,5,0,0,0,5,5,3,0,28,0,0,0,10,0,0,0,20,15,12,0,0,0,3,0,0,0,3,0,0,0,0,0,0,0,0,0,0,0,0,0,0,0,0,0,0,0,0,0,0,0,0,0,0,0,0,0,0,0,0,0,0,0,0,0,0,0,0,0,0,0,0,0,0,0,0,0,0,0,0,0],"split_type":[0,0,0,0,0,0,0,0,0,0,0,0,0,0,0,0,0,0,0,0,0,0,0,0,0,0,0,0,0,0,0,0,0,0,0,0,0,0,0,0,0,0,0,0,0,0,0,0,0,0,0,0,0,0,0,0,0,0,0,0,0,0,0,0,0,0,0,0,0,0,0,0,0,0,0,0,0,0,0,0,0,0,0,0,0,0,0,0,0,0,0,0,0,0,0,0,0,0,0,0,0,0,0,0,0,0,0,0,0,0,0,0,0,0,0,0,0,0,0,0,0,0,0,0,0,0,0,0,0,0,0,0,0,0,0,0,0,0,0,0,0,0,0,0,0,0,0,0,0],"sum_hessian":[2.823E3,2.119E3,7.04E2,2.065E3,5.4E1,5.79E2,1.25E2,2.002E3,6.3E1,4E1,1.4E1,2.47E2,3.32E2,1.04E2,2.1E1,1.953E3,4.9E1,4.9E1,1.4E1,3.6E1,4E0,4E0,1E1,4.5E1,2.02E2,2.32E2,1E2,7.7E1,2.7E1,2E1,1E0,1.873E3,8E1,7E0,4.2E1,3.8E1,1.1E1,8E0,2.8E1,8E0,2E0,3.9E1,6E0,1.68E2,3.4E1,2.04E2,2.8E1,9.3E1,7E0,7.3E1,4E0,5E0,2.2E1,1.9E1,1E0,1.789E3,8.4E1,5E1,3E1,2E0,5E0,2.7E1,1.5E1,2.9E1,9E0,5E0,6E0,1E0,7E0,1E1,1.8E1,5E0,3E0,3.4E1,5E0,4E0,2E0,1.48E2,2E1,2.2E1,1.2E1,1.9E2,1.4E1,1.3E1,1.5E1,3E1,6.3E1,7.2E1,1E0,2E0,2E0,4E0,1E0,2E1,2E0,1.2E1,7E0,1.737E3,5.2E1,5.3E1,3.1E1,2.6E1,2.4E1,2.4E1,6E0,5E0,2.2E1,4E0,1.1E1,2.7E1,2E0,5E0,1E0,5E0,2E0,8E0,2E0,1.4E1,4E0,2E0,3E0,3E1,4E0,4E0,1E0,1E0,3E0,1.42E2,6E0,1.5E1,5E0,9E0,1.3E1,1.8E2,1E1,1.3E1,1E0,2.7E1,3E0,5.8E1,5E0,6.9E1,3E0,3E0,1E0,9E0,1.1E1,1E1,2E0],"tree_param":{"num_deleted":"0","num_feature":"32","num_nodes":"149","size_leaf_vector":"1"}},{"base_weights":[-2.0138534E-4,-3.514425E-2,2.9243118E-1,-4.9662165E-2,3.7860277E-1,5.5534196E-1,1.3111351E-2,-6.401226E-2,3.0610737E-1,4.4290543E-1,-1.0680458E-2,4.9662703E-1,4.5177713E-2,-4.676998E-2,1.1018438E-1,-7.839993E-2,2.6403365E-1,5.30102E-1,1.2282657E-1,6.9792515E-1,3.4733132E-1,5.15298E-1,-1.1950202E-2,-7.465088E-2,3.6065134E-1,1.4869289E-1,-1.17751E-2,-1.0518842E-2,-1.3814472E-1,3.2592314E-1,-1.0333404E-2,4.858266E-2,1.909811E-1,4.393632E-1,8.968079E-3,1.009194E0,2.0535275E-1,1.9460964E-1,6.5057003E-1,4.631311E-1,3.7635498E-2,-9.8442495E-2,9.6513964E-2,2.2399867E-2,6.1986446E-3,7.667004E-2,2.7647534E-1,-2.8163277E-2,4.7093394E-1,-1.4897773E-1,9.170598E-2,2.3450157E-1,6.4077395E-1,6.490332E-2,5.059092E-1,2.4606628E-2,-6.1659575E-3,1.15128204E-1,-1.2416645E-2,6.7619555E-2,2.2029923E-2,1.0538232E-1,1.850831E-2,4.1389953E-2,3.1808984E-1,7.976117E-1,1.9928342E-2,4.0800172E-1,7.6151615E-1,-1.7396621E-1,-5.3277053E-2,2.2162225E-2,-8.891554E-2,1.0032162E-1,-1.0058506E-2,3.4800676E-1,-9.859202E-3,-2.412062E-3,2.1200614E-2,4.4355195E-2,1.3037133E-2,-7.88974E-3,1.1705763E-3,7.1105445E-3,-1.0823681E-2,1.5436989E-2,4.12204E-3,3.8849782E-2,1.7817238E-2,7.295632E-3,-6.746781E-3,3.1770635E-2,-6.7777964E-3,-5.777866E-3,1.3126127E-2,1.31985815E-2,-9.703032E-3,-4.223178E-3,3.058235E-3,2.2467492E-2,1.6108037E-3,5.6987774E-2,2.9747013E-2,1.773592E-2,3.4547333E-2,4.2949088E-2,1.2718695E-2,-9.830442E-3,5.5208954E-4,-4.6897377E-3,5.706071E-3,3.7322205E-3,-7.7938135E-3,6.1000087E-3,-7.4952245E-3,1.879984E-2,5.069218E-3],"categories":[],"categories_nodes":[],"categories_segments":[],"categories_sizes":[],"default_left":[0,0,0,0,0,0,0,0,0,0,0,0,0,0,0,0,0,0,0,0,0,0,0,0,0,0,0,0,0,0,0,0,0,0,0,0,0,0,0,0,0,0,0,0,0,0,0,0,0,0,0,0,0,0,0,0,0,0,0,0,0,0,0,0,0,0,0,0,0,0,0,0,0,0,0,0,0,0,0,0,0,0,0,0,0,0,0,0,0,0,0,0,0,0,0,0,0,0,0,0,0,0,0,0,0,0,0,0,0,0,0,0,0,0,0,0,0],"id":9,"left_children":[1,3,5,7,9,11,13,15,17,19,-1,21,-1,23,25,27,29,31,33,35,37,39,-1,41,43,45,-1,47,49,51,-1,-1,53,55,57,59,61,63,65,67,-1,69,71,-1,-1,73,75,77,79,81,83,85,87,89,91,-1,-1,93,-1,-1,-1,95,-1,97,99,101,-1,103,105,107,109,-1,111,113,-1,115,-1,-1,-1,-1,-1,-1,-1,-1,-1,-1,-1,-1,-1,-1,-1,-1,-1,-1,-1,-1,-1,-1,-1,-1,-1,-1,-1,-1,-1,-1,-1,-1,-1,-1,-1,-1,-1,-1,-1,-1,-1],"loss_changes":[2.8661903E1,1.50596895E1,2.195014E1,1.2374486E1,3.3314762E0,2.6998367E0,8.538312E-1,1.1003705E1,3.7939577E0,1.6343317E0,0E0,1.9636459E0,0E0,1.060617E0,7.8048193E-1,9.042403E0,2.922243E0,6.1034803E0,1.9062002E0,2.859209E0,2.5594373E0,1.2738342E0,0E0,3.597178E-1,6.8497956E-2,4.4816875E-1,0E0,8.890497E0,2.966772E0,2.35396E0,0E0,0E0,9.5980066E-1,4.7638273E-1,1.1211942E0,1.745822E0,1.09279275E-1,7.4361813E-1,3.8614368E-1,1.4987793E0,0E0,2.4997228E-1,7.4664605E-1,0E0,0E0,2.4360788E-1,6.7848897E-1,9.180925E0,3.0052805E0,1.7258224E0,8.712724E-1,7.534685E-1,4.5928478E-1,3.2727626E-1,6.676378E-1,0E0,0E0,1.016387E0,0E0,0E0,0E0,3.8364568E-1,0E0,5.2451883E-2,8.110471E-1,8.468437E-2,0E0,1.187151E0,5.7236004E-1,1.19464815E-1,3.430513E-1,0E0,9.925203E-2,1.9187367E-1,0E0,7.2327256E-2,0E0,0E0,0E0,0E0,0E0,0E0,0E0,0E0,0E0,0E0,0E0,0E0,0E0,0E0,0E0,0E0,0E0,0E0,0E0,0E0,0E0,0E0,0E0,0E0,0E0,0E0,0E0,0E0,0E0,0E0,0E0,0E0,0E0,0E0,0E0,0E0,0E0,0E0,0E0,0E0,0E0],"parents":[2147483647,0,0,1,1,2,2,3,3,4,4,5,5,6,6,7,7,8,8,9,9,11,11,13,13,14,14,15,15,16,16,17,17,18,18,19,19,20,20,21,21,23,23,24,24,25,25,27,27,28,28,29,29,32,32,33,33,34,34,35,35,36,36,37,37,38,38,39,39,41,41,42,42,45,45,46,46,47,47,48,48,49,49,50,50,51,51,52,52,53,53,54,54,57,57,61,61,63,63,64,64,65,65,67,67,68,68,69,69,70,70,72,72,73,73,75,75],"right_children":[2,4,6,8,10,12,14,16,18,20,-1,22,-1,24,26,28,30,32,34,36,38,40,-1,42,44,46,-1,48,50,52,-1,-1,54,56,58,60,62,64,66,68,-1,70,72,-1,-1,74,76,78,80,82,84,86,88,90,92,-1,-1,94,-1,-1,-1,96,-1,98,100,102,-1,104,106,108,110,-1,112,114,-1,116,-1,-1,-1,-1,-1,-1,-1,-1,-1,-1,-1,-1,-1,-1,-1,-1,-1,-1,-1,-1,-1,-1,-1,-1,-1,-1,-1,-1,-1,-1,-1,-1,-1,-1,-1,-1,-1,-1,-1,-1,-1],"split_conditions":[2E0,1E0,1E0,1E0,2.3E1,1E0,2E1,1E0,1E0,2E0,-1.0680458E-2,1E0,4.5177713E-2,1E0,1E0,1E0,2.3E1,2.1E1,2E0,1E0,4E0,1E0,-1.1950202E-2,1E0,2E0,4E0,-1.17751E-2,1E0,1E0,4E0,-1.0333404E-2,4.858266E-2,4E0,2.3E1,2.2E1,2.2E1,2.2E1,3E0,2.2E1,1E0,3.7635498E-2,3E0,2E0,2.2399867E-2,6.1986446E-3,1E0,1E0,1E0,2.2E1,1E0,2.3E1,2.2E1,1E0,3E0,2.3E1,2.4606628E-2,-6.1659575E-3,3E0,-1.2416645E-2,6.7619555E-2,2.2029923E-2,2.1E1,1.850831E-2,2E1,2.2E1,1E0,1.9928342E-2,1E0,3E0,1E0,1E0,2.2162225E-2,3E0,2.1E1,-1.0058506E-2,1E0,-9.859202E-3,-2.412062E-3,2.1200614E-2,4.4355195E-2,1.3037133E-2,-7.88974E-3,1.1705763E-3,7.1105445E-3,-1.0823681E-2,1.5436989E-2,4.12204E-3,3.8849782E-2,1.7817238E-2,7.295632E-3,-6.746781E-3,3.1770635E-2,-6.7777964E-3,-5.777866E-3,1.3126127E-2,1.31985815E-2,-9.703032E-3,-4.223178E-3,3.058235E-3,2.2467492E-2,1.6108037E-3,5.6987774E-2,2.9747013E-2,1.773592E-2,3.4547333E-2,4.2949088E-2,1.2718695E-2,-9.830442E-3,5.5208954E-4,-4.6897377E-3,5.706071E-3,3.7322205E-3,-7.7938135E-3,6.1000087E-3,-7.4952245E-3,1.879984E-2,5.069218E-3],"split_indices":[5,16,31,17,0,16,0,18,31,3,0,7,0,15,23,31,0,0,3,31,3,15,0,16,3,3,0,14,21,3,0,0,3,0,0,0,0,3,0,17,0,3,3,0,0,20,18,15,0,15,0,0,5,3,0,0,0,3,0,0,0,0,0,0,0,31,0,18,5,17,18,0,3,0,0,15,0,0,0,0,0,0,0,0,0,0,0,0,0,0,0,0,0,0,0,0,0,0,0,0,0,0,0,0,0,0,0,0,0,0,0,0,0,0,0,0,0],"split_type":[0,0,0,0,0,0,0,0,0,0,0,0,0,0,0,0,0,0,0,0,0,0,0,0,0,0,0,0,0,0,0,0,0,0,0,0,0,0,0,0,0,0,0,0,0,0,0,0,0,0,0,0,0,0,0,0,0,0,0,0,0,0,0,0,0,0,0,0,0,0,0,0,0,0,0,0,0,0,0,0,0,0,0,0,0,0,0,0,0,0,0,0,0,0,0,0,0,0,0,0,0,0,0,0,0,0,0,0,0,0,0,0,0,0,0,0,0],"sum_hessian":[2.801E3,2.503E3,2.98E2,2.419E3,8.4E1,1.53E2,1.45E2,2.326E3,9.3E1,7.6E1,8E0,1.33E2,2E1,9E1,5.5E1,2.229E3,9.7E1,4.1E1,5.2E1,1.9E1,5.7E1,1.3E2,3E0,8.5E1,5E0,5E1,5E0,1.044E3,1.185E3,8.6E1,1.1E1,1.7E1,2.4E1,1.3E1,3.9E1,1.1E1,8E0,3.9E1,1.8E1,1.09E2,2.1E1,7.5E1,1E1,3E0,2E0,3.3E1,1.7E1,1.008E3,3.6E1,1.132E3,5.3E1,6.8E1,1.8E1,1.8E1,6E0,1.2E1,1E0,2.8E1,1.1E1,6E0,5E0,6E0,2E0,1.8E1,2.1E1,1E1,8E0,9.4E1,1.5E1,2.7E1,4.8E1,3E0,7E0,3.1E1,2E0,1.5E1,2E0,9.66E2,4.2E1,1.1E1,2.5E1,1.077E3,5.5E1,4.6E1,7E0,4.5E1,2.3E1,1.1E1,7E0,1.3E1,5E0,5E0,1E0,1.1E1,1.7E1,4E0,2E0,2E0,1.6E1,1.4E1,7E0,2E0,8E0,8.1E1,1.3E1,1.2E1,3E0,2.4E1,3E0,3.9E1,9E0,2E0,5E0,2.9E1,2E0,1.3E1,2E0],"tree_param":{"num_deleted":"0","num_feature":"32","num_nodes":"117","size_leaf_vector":"1"}},{"base_weights":[4.2208834E-3,-7.657473E-2,9.522811E-2,-8.932173E-2,1.7015958E-1,4.3709908E-2,4.7983694E-1,-1.03412494E-1,1.3383894E-1,2.0003115E-1,-9.83724E-3,2.5662748E-2,5.351992E-1,5.1620483E-1,4.2879876E-2,-1.1197776E-1,7.889547E-2,1.7117582E-1,-9.8160645E-3,1.4834182E-2,1.2495731E-1,1.1296333E-1,-6.815206E-2,6.436397E-1,-1.0232171E-2,5.3434443E-1,-1.23866005E-2,1.0829596E-1,-1.056362E-2,-1.2166572E-1,2.7453966E-2,-1.1535576E-1,1.5837517E-1,-2.622555E-2,2.4214461E-1,3.4117386E-1,4.1512657E-2,9.1731615E-2,9.0657556E-1,-8.476023E-2,2.3856726E-1,8.5285234E-1,4.535901E-1,5.5211574E-1,-1.03954645E-2,-1.0675889E-1,3.053015E-1,-7.558847E-2,-1.364764E-1,1.01274125E-1,-1.4785977E-1,-1.6046852E-1,1.6289026E-2,1.9770558E-1,-9.003856E-3,-9.264046E-2,2.0157201E-2,1.6111508E-1,3.1203023E-1,2.1927185E-1,3.900485E-2,-7.962779E-2,1.3883345E-1,7.1798615E-2,6.056215E-1,6.559769E-2,6.398968E-1,-6.1104175E-2,-1.1679816E-2,5.247046E-1,7.541253E-2,1.50399525E-2,4.551157E-2,2.7959287E-2,3.06759E-1,5.781214E-1,-1.3435756E-2,-5.4622054E-2,-9.186077E-3,2.060782E-2,3.0530572E-3,-5.522071E-3,-1.8466044E-3,-1.0094635E-2,-5.1961318E-3,3.2108466E-4,2.0284913E-2,-4.5639407E-3,-1.1180166E-2,-1.17617855E-2,-4.9150675E-3,5.167523E-3,1.4108772E-2,-9.339255E-3,5.384117E-4,3.5042998E-3,1.0794677E-2,2.1953454E-2,9.068467E-3,3.3916605E-3,1.5446271E-2,-6.5269913E-3,5.005777E-4,2.3268675E-3,1.5014337E-2,2.649799E-3,3.1019915E-2,4.409103E-2,1.37183E-2,2.5657357E-3,4.8444938E-2,-3.7675016E-3,1.2233776E-2,3.0372476E-2,-5.5000037E-3,-5.776343E-3,9.821054E-3,7.716426E-3,2.0403149E-2,3.0862564E-2,6.932292E-3,-1.19043095E-2,1.0728681E-2,-7.5472267E-3,3.597349E-4],"categories":[],"categories_nodes":[],"categories_segments":[],"categories_sizes":[],"default_left":[0,0,0,0,0,0,0,0,0,0,0,0,0,0,0,0,0,0,0,0,0,0,0,0,0,0,0,0,0,0,0,0,0,0,0,0,0,0,0,0,0,0,0,0,0,0,0,0,0,0,0,0,0,0,0,0,0,0,0,0,0,0,0,0,0,0,0,0,0,0,0,0,0,0,0,0,0,0,0,0,0,0,0,0,0,0,0,0,0,0,0,0,0,0,0,0,0,0,0,0,0,0,0,0,0,0,0,0,0,0,0,0,0,0,0,0,0,0,0,0,0,0,0,0,0],"id":10,"left_children":[1,3,5,7,9,11,13,15,17,19,-1,21,23,25,27,29,31,33,-1,-1,35,37,39,41,-1,43,-1,45,-1,47,49,51,53,55,57,59,61,63,65,67,69,71,73,75,-1,77,79,81,83,85,87,89,-1,91,-1,93,-1,95,97,99,-1,101,103,105,107,-1,109,111,-1,113,115,-1,-1,-1,117,119,121,123,-1,-1,-1,-1,-1,-1,-1,-1,-1,-1,-1,-1,-1,-1,-1,-1,-1,-1,-1,-1,-1,-1,-1,-1,-1,-1,-1,-1,-1,-1,-1,-1,-1,-1,-1,-1,-1,-1,-1,-1,-1,-1,-1,-1,-1,-1,-1],"loss_changes":[2.0529472E1,4.666835E0,2.5995281E1,4.438159E0,8.394358E-1,1.0266579E1,2.440998E0,2.0762835E0,1.0690864E0,4.563403E-1,0E0,9.172406E0,3.4211016E0,2.1139984E0,2.3901334E-1,1.7121134E0,9.446114E-1,1.07106E0,0E0,0E0,7.0752156E-1,9.689692E0,2.7710054E0,1.0445414E0,0E0,1.9615059E0,0E0,4.9863058E-1,0E0,7.970028E-1,1.0891346E0,4.104932E-1,6.079954E-1,6.361948E-1,2.6684403E-1,4.1750848E-1,3.6473954E-1,5.754265E0,7.820711E-1,1.7919347E0,1.267601E0,2.330246E-1,1.5406466E-1,2.0227013E0,0E0,1.4040284E-2,1.3142294E-1,3.8663507E-1,1.8828354E0,1.7010415E0,8.673084E-2,5.5893093E-2,0E0,2.8167343E-1,0E0,1.8698348E-1,0E0,1.2448901E-1,4.0173745E-1,1.1481479E-1,0E0,6.519899E-2,2.3935112E-1,5.5991755E0,1.6794009E0,0E0,2.0803723E0,1.952542E0,0E0,5.920057E-1,4.616925E-1,0E0,0E0,0E0,1.0688412E-1,2.1671753E0,4.0964386E-1,3.0857714E-2,0E0,0E0,0E0,0E0,0E0,0E0,0E0,0E0,0E0,0E0,0E0,0E0,0E0,0E0,0E0,0E0,0E0,0E0,0E0,0E0,0E0,0E0,0E0,0E0,0E0,0E0,0E0,0E0,0E0,0E0,0E0,0E0,0E0,0E0,0E0,0E0,0E0,0E0,0E0,0E0,0E0,0E0,0E0,0E0,0E0,0E0,0E0],"parents":[2147483647,0,0,1,1,2,2,3,3,4,4,5,5,6,6,7,7,8,8,9,9,11,11,12,12,13,13,14,14,15,15,16,16,17,17,20,20,21,21,22,22,23,23,25,25,27,27,29,29,30,30,31,31,32,32,33,33,34,34,35,35,36,36,37,37,38,38,39,39,40,40,41,41,42,42,43,43,45,45,46,46,47,47,48,48,49,49,50,50,51,51,53,53,55,55,57,57,58,58,59,59,61,61,62,62,63,63,64,64,66,66,67,67,69,69,70,70,74,74,75,75,76,76,77,77],"right_children":[2,4,6,8,10,12,14,16,18,20,-1,22,24,26,28,30,32,34,-1,-1,36,38,40,42,-1,44,-1,46,-1,48,50,52,54,56,58,60,62,64,66,68,70,72,74,76,-1,78,80,82,84,86,88,90,-1,92,-1,94,-1,96,98,100,-1,102,104,106,108,-1,110,112,-1,114,116,-1,-1,-1,118,120,122,124,-1,-1,-1,-1,-1,-1,-1,-1,-1,-1,-1,-1,-1,-1,-1,-1,-1,-1,-1,-1,-1,-1,-1,-1,-1,-1,-1,-1,-1,-1,-1,-1,-1,-1,-1,-1,-1,-1,-1,-1,-1,-1,-1,-1,-1,-1,-1],"split_conditions":[1E0,1E0,2E0,1E0,2.3E1,1E0,1E0,1E0,2.3E1,1E0,-9.83724E-3,2.1E1,2.3E1,1E0,3E0,1E0,2E1,2E1,-9.8160645E-3,1.4834182E-2,2E0,1E0,1E0,2.2E1,-1.0232171E-2,1E0,-1.23866005E-2,2E1,-1.056362E-2,2E0,2.2E1,3E0,2.3E1,3E0,2.1E1,3E0,2E1,1E0,2E0,2.3E1,2E0,2E1,3E0,1E0,-1.03954645E-2,3E0,3E0,1E0,3E0,2.1E1,2.3E1,3E0,1.6289026E-2,3E0,-9.003856E-3,3E0,2.0157201E-2,3E0,2.2E1,2E0,3.900485E-2,4E0,4E0,1E0,2E1,6.559769E-2,3E0,1E0,-1.1679816E-2,2.3E1,3E0,1.50399525E-2,4.551157E-2,2.7959287E-2,4E0,1E0,2E0,2E0,-9.186077E-3,2.060782E-2,3.0530572E-3,-5.522071E-3,-1.8466044E-3,-1.0094635E-2,-5.1961318E-3,3.2108466E-4,2.0284913E-2,-4.5639407E-3,-1.1180166E-2,-1.17617855E-2,-4.9150675E-3,5.167523E-3,1.4108772E-2,-9.339255E-3,5.384117E-4,3.5042998E-3,1.0794677E-2,2.1953454E-2,9.068467E-3,3.3916605E-3,1.5446271E-2,-6.5269913E-3,5.005777E-4,2.3268675E-3,1.5014337E-2,2.649799E-3,3.1019915E-2,4.409103E-2,1.37183E-2,2.5657357E-3,4.8444938E-2,-3.7675016E-3,1.2233776E-2,3.0372476E-2,-5.5000037E-3,-5.776343E-3,9.821054E-3,7.716426E-3,2.0403149E-2,3.0862564E-2,6.932292E-3,-1.19043095E-2,1.0728681E-2,-7.5472267E-3,3.597349E-4],"split_indices":[30,16,5,18,0,14,12,21,0,5,0,0,0,9,5,20,0,0,0,0,3,16,16,0,0,28,0,0,0,3,0,5,0,5,0,5,0,20,3,0,3,0,3,10,0,3,3,5,3,0,0,3,0,3,0,3,0,3,0,5,0,3,3,18,0,0,3,13,0,0,3,0,0,0,3,11,3,3,0,0,0,0,0,0,0,0,0,0,0,0,0,0,0,0,0,0,0,0,0,0,0,0,0,0,0,0,0,0,0,0,0,0,0,0,0,0,0,0,0,0,0,0,0,0,0],"split_type":[0,0,0,0,0,0,0,0,0,0,0,0,0,0,0,0,0,0,0,0,0,0,0,0,0,0,0,0,0,0,0,0,0,0,0,0,0,0,0,0,0,0,0,0,0,0,0,0,0,0,0,0,0,0,0,0,0,0,0,0,0,0,0,0,0,0,0,0,0,0,0,0,0,0,0,0,0,0,0,0,0,0,0,0,0,0,0,0,0,0,0,0,0,0,0,0,0,0,0,0,0,0,0,0,0,0,0,0,0,0,0,0,0,0,0,0,0,0,0,0,0,0,0,0,0],"sum_hessian":[2.79E3,1.478E3,1.312E3,1.406E3,7.2E1,1.158E3,1.54E2,1.323E3,8.3E1,6.7E1,5E0,1.118E3,4E1,1.42E2,1.2E1,1.264E3,5.9E1,7.5E1,8E0,2.8E1,3.9E1,5.79E2,5.39E2,3.5E1,5E0,1.39E2,3E0,1E1,2E0,1.182E3,8.2E1,1.7E1,4.2E1,2E1,5.5E1,1E1,2.9E1,5.65E2,1.4E1,5.12E2,2.7E1,1.5E1,2E1,1.36E2,3E0,5E0,5E0,2.89E2,8.93E2,5.8E1,2.4E1,1.6E1,1E0,3.8E1,4E0,1.8E1,2E0,2.7E1,2.8E1,9E0,1E0,1.3E1,1.6E1,5.45E2,2E1,4E0,1E1,4.43E2,6.9E1,9E0,1.8E1,2E0,1.3E1,1E1,1E1,1.3E2,6E0,4E0,1E0,3E0,2E0,1.51E2,1.38E2,2.95E2,5.98E2,4.5E1,1.3E1,1.5E1,9E0,6E0,1E1,1.9E1,1.9E1,9E0,9E0,1.1E1,1.6E1,1.3E1,1.5E1,4E0,5E0,8E0,5E0,1.1E1,5E0,5.28E2,1.7E1,1E1,1E1,4E0,6E0,4.24E2,1.9E1,8E0,1E0,7E0,1.1E1,5E0,5E0,1.19E2,1.1E1,3E0,3E0,1E0,3E0],"tree_param":{"num_deleted":"0","num_feature":"32","num_nodes":"125","size_leaf_vector":"1"}},{"base_weights":[5.2888207E-3,-9.158298E-2,2.9070476E-1,-9.944619E-2,1.7146692E-1,2.2377129E-1,6.04675E-1,-1.0515959E-1,1.801488E-1,2.4379575E-1,-8.973185E-3,1.1761812E-1,3.002303E-1,1.9388841E-1,6.390081E-1,-1.1203494E-1,6.2485445E-2,2.4872674E-1,-9.423822E-3,1.7168544E-1,3.562086E-1,4.1943863E-2,1.9480942E-1,3.735977E-1,1.12582035E-1,8.038409E-2,1.8621247E-2,6.489121E-1,-1.2003533E-2,-1.1698779E-1,7.4649885E-2,1.7568949E-1,-1.387522E-1,1.612724E-1,4.8345342E-1,4.1879874E-4,1.3230315E-2,6.7206186E-1,2.3672344E-4,5.2605208E-2,-1.13290865E-2,3.1328833E-1,8.953506E-2,3.388755E-1,8.1730753E-1,1.3787729E-1,-1.16169695E-2,2.8652038E-2,1.10627115E-2,6.583213E-1,-1.0123128E-2,-1.4312042E-1,-8.219397E-2,3.251484E-2,-3.761922E-3,1.0908648E-1,3.0247867E-1,9.150502E-2,-1.1541332E-2,1.2939942E-2,-3.0402398E-2,3.0270237E-2,8.983158E-3,4.264095E-2,2.047103E-2,6.092346E-2,-1.0400707E-2,2.531827E-1,3.0286018E-2,1.286382E-1,-1.0502123E-2,2.8493655E-1,6.853747E-1,4.2019866E-2,1.1196777E-2,1.10681035E-1,2.0310163E-2,1.4074957E-1,-9.060851E-2,6.872776E-1,2.942398E-1,-7.4597695E-3,-1.4590342E-3,-5.0081303E-3,1.5121089E-2,5.47729E-3,-7.5436938E-3,7.920808E-4,2.1090386E-2,2.7001685E-2,-5.701667E-3,1.690885E-2,-8.673398E-3,1.1350036E-2,-4.211252E-3,2.2888024E-4,4.4697537E-3,1.0416052E-2,3.0315047E-2,7.576545E-3,-1.1200949E-2,1.5092901E-2,-1.548403E-2,2.6781127E-2,3.9146572E-2,4.383411E-3,1.1481139E-2,1.1823363E-2,1.5010636E-3,-1.1147997E-2,1.3914307E-3,3.5196133E-2,4.9666273E-3,1.9226726E-2,-1.2960318E-2],"categories":[],"categories_nodes":[],"categories_segments":[],"categories_sizes":[],"default_left":[0,0,0,0,0,0,0,0,0,0,0,0,0,0,0,0,0,0,0,0,0,0,0,0,0,0,0,0,0,0,0,0,0,0,0,0,0,0,0,0,0,0,0,0,0,0,0,0,0,0,0,0,0,0,0,0,0,0,0,0,0,0,0,0,0,0,0,0,0,0,0,0,0,0,0,0,0,0,0,0,0,0,0,0,0,0,0,0,0,0,0,0,0,0,0,0,0,0,0,0,0,0,0,0,0,0,0,0,0,0,0,0,0,0,0],"id":11,"left_children":[1,3,5,7,9,11,13,15,17,19,-1,21,23,25,27,29,31,33,-1,35,37,39,41,43,45,47,-1,49,-1,51,53,55,57,59,61,-1,-1,63,-1,65,-1,67,69,71,73,75,-1,77,-1,79,-1,81,83,-1,85,87,89,91,-1,-1,93,-1,-1,-1,-1,95,-1,97,-1,99,-1,101,103,-1,-1,105,-1,107,109,111,113,-1,-1,-1,-1,-1,-1,-1,-1,-1,-1,-1,-1,-1,-1,-1,-1,-1,-1,-1,-1,-1,-1,-1,-1,-1,-1,-1,-1,-1,-1,-1,-1,-1,-1],"loss_changes":[7.736019E1,4.3379745E0,1.4764412E1,3.2601452E0,1.592079E0,4.7208767E0,1.6249466E0,2.2995605E0,1.0833411E0,3.522563E-1,0E0,1.4346528E0,4.638813E0,1.9297427E-1,1.1483116E0,1.7756863E0,1.8240697E0,6.4050794E-1,0E0,4.985538E-1,2.1060886E0,3.726377E-1,1.4936304E0,3.4822388E0,8.783469E-1,5.196062E-2,0E0,1.0385056E0,0E0,1.6812687E0,2.2593222E0,3.9767528E-1,6.359451E-1,5.125888E-1,2.2465944E-1,0E0,0E0,1.2558174E-1,0E0,2.7715644E-1,0E0,8.4852076E-1,8.0017126E-1,4.0659885E0,4.4718742E-2,6.191101E-1,0E0,1.06334805E-1,0E0,9.785347E-1,0E0,7.307415E-1,5.566018E0,0E0,7.66629E-1,1.0139055E0,1.7436386E0,6.4691556E-1,0E0,0E0,1.5766032E-1,0E0,0E0,0E0,0E0,1.9049737E-1,0E0,6.499262E-1,0E0,5.1026875E-1,0E0,2.0957775E0,1.892376E-2,0E0,0E0,2.0979297E-1,0E0,3.5295576E-2,6.890595E-2,9.380722E-1,5.9940654E-1,0E0,0E0,0E0,0E0,0E0,0E0,0E0,0E0,0E0,0E0,0E0,0E0,0E0,0E0,0E0,0E0,0E0,0E0,0E0,0E0,0E0,0E0,0E0,0E0,0E0,0E0,0E0,0E0,0E0,0E0,0E0,0E0,0E0,0E0],"parents":[2147483647,0,0,1,1,2,2,3,3,4,4,5,5,6,6,7,7,8,8,9,9,11,11,12,12,13,13,14,14,15,15,16,16,17,17,19,19,20,20,21,21,22,22,23,23,24,24,25,25,27,27,29,29,30,30,31,31,32,32,33,33,34,34,37,37,39,39,41,41,42,42,43,43,44,44,45,45,47,47,49,49,51,51,52,52,54,54,55,55,56,56,57,57,60,60,65,65,67,67,69,69,71,71,72,72,75,75,77,77,78,78,79,79,80,80],"right_children":[2,4,6,8,10,12,14,16,18,20,-1,22,24,26,28,30,32,34,-1,36,38,40,42,44,46,48,-1,50,-1,52,54,56,58,60,62,-1,-1,64,-1,66,-1,68,70,72,74,76,-1,78,-1,80,-1,82,84,-1,86,88,90,92,-1,-1,94,-1,-1,-1,-1,96,-1,98,-1,100,-1,102,104,-1,-1,106,-1,108,110,112,114,-1,-1,-1,-1,-1,-1,-1,-1,-1,-1,-1,-1,-1,-1,-1,-1,-1,-1,-1,-1,-1,-1,-1,-1,-1,-1,-1,-1,-1,-1,-1,-1,-1,-1],"split_conditions":[2E0,1E0,3E0,1E0,2.3E1,1E0,1E0,1E0,2.3E1,1E0,-8.973185E-3,2.1E1,2.2E1,2.2E1,1E0,1E0,2.2E1,1E0,-9.423822E-3,2E1,2.2E1,1E0,2.2E1,1E0,2.3E1,1E0,1.8621247E-2,1E0,-1.2003533E-2,1E0,1E0,1E0,1E0,2.1E1,2.2E1,4.1879874E-4,1.3230315E-2,2E1,2.3672344E-4,1E0,-1.13290865E-2,1E0,2.3E1,1E0,2.1E1,1E0,-1.16169695E-2,2.1E1,1.10627115E-2,1E0,-1.0123128E-2,1E0,1E0,3.251484E-2,2.1E1,2.1E1,2.1E1,2.3E1,-1.1541332E-2,1.2939942E-2,1E0,3.0270237E-2,8.983158E-3,4.264095E-2,2.047103E-2,2E1,-1.0400707E-2,1E0,3.0286018E-2,1E0,-1.0502123E-2,1E0,2E1,4.2019866E-2,1.1196777E-2,1E0,2.0310163E-2,1E0,1E0,1E0,2.1E1,-7.4597695E-3,-1.4590342E-3,-5.0081303E-3,1.5121089E-2,5.47729E-3,-7.5436938E-3,7.920808E-4,2.1090386E-2,2.7001685E-2,-5.701667E-3,1.690885E-2,-8.673398E-3,1.1350036E-2,-4.211252E-3,2.2888024E-4,4.4697537E-3,1.0416052E-2,3.0315047E-2,7.576545E-3,-1.1200949E-2,1.5092901E-2,-1.548403E-2,2.6781127E-2,3.9146572E-2,4.383411E-3,1.1481139E-2,1.1823363E-2,1.5010636E-3,-1.1147997E-2,1.3914307E-3,3.5196133E-2,4.9666273E-3,1.9226726E-2,-1.2960318E-2],"split_indices":[4,18,4,16,0,30,30,21,0,30,0,0,0,0,8,15,0,30,0,0,0,22,0,16,0,18,0,29,0,30,4,30,30,0,0,0,0,0,0,27,0,18,0,15,0,15,0,0,0,15,0,20,12,0,0,0,0,0,0,0,4,0,0,0,0,0,0,16,0,23,0,27,0,0,0,13,0,16,16,11,0,0,0,0,0,0,0,0,0,0,0,0,0,0,0,0,0,0,0,0,0,0,0,0,0,0,0,0,0,0,0,0,0,0,0],"split_type":[0,0,0,0,0,0,0,0,0,0,0,0,0,0,0,0,0,0,0,0,0,0,0,0,0,0,0,0,0,0,0,0,0,0,0,0,0,0,0,0,0,0,0,0,0,0,0,0,0,0,0,0,0,0,0,0,0,0,0,0,0,0,0,0,0,0,0,0,0,0,0,0,0,0,0,0,0,0,0,0,0,0,0,0,0,0,0,0,0,0,0,0,0,0,0,0,0,0,0,0,0,0,0,0,0,0,0,0,0,0,0,0,0,0,0],"sum_hessian":[2.796E3,2.088E3,7.08E2,2.028E3,6E1,5.85E2,1.23E2,1.988E3,4E1,5E1,1E1,2.46E2,3.39E2,1E1,1.13E2,1.91E3,7.8E1,3.4E1,6E0,3.2E1,1.8E1,1.25E2,1.21E2,2.43E2,9.6E1,7E0,3E0,1.12E2,1E0,1.861E3,4.9E1,5E1,2.8E1,2.6E1,8E0,1.2E1,2E1,9E0,9E0,1.21E2,4E0,5.6E1,6.5E1,2.27E2,1.6E1,9E1,6E0,6E0,1E0,1.11E2,1E0,1.061E3,8E2,5E0,4.4E1,3.4E1,1.6E1,8E0,2E1,1.7E1,9E0,5E0,3E0,4E0,5E0,1.18E2,3E0,4.8E1,8E0,5.8E1,7E0,1.98E2,2.9E1,1.5E1,1E0,8.3E1,7E0,3E0,3E0,1.02E2,9E0,1.007E3,5.4E1,7.65E2,3.5E1,2.5E1,1.9E1,2.7E1,7E0,1E1,6E0,4E0,4E0,1E0,8E0,4E1,7.8E1,4.4E1,4E0,5.5E1,3E0,1.93E2,5E0,1.4E1,1.5E1,7.1E1,1.2E1,1E0,2E0,1E0,2E0,9.9E1,3E0,8E0,1E0],"tree_param":{"num_deleted":"0","num_feature":"32","num_nodes":"115","size_leaf_vector":"1"}},{"base_weights":[-1.3447286E-3,-8.617772E-2,2.5581855E-1,-9.504394E-2,1.9186158E-1,4.8848994E-2,3.7259185E-1,-1.0306078E-1,2.1651134E-1,2.5992918E-1,-8.60532E-3,-1.9721186E-2,1.1757446E-1,2.9187027E-1,5.7656395E-1,-1.097821E-1,1.9272697E-1,2.629985E-1,-9.186158E-3,1.8199092E-1,3.9111853E-1,-3.887112E-2,1.0760317E-1,1.4417765E-1,-1.0405026E-2,2.1580115E-1,5.588226E-1,5.858326E-1,1.2735924E-3,-1.177897E-1,5.4522563E-2,2.9203567E-1,-1.04708225E-1,1.488645E-1,5.8348393E-1,2.624359E-1,3.1085892E-2,7.0701426E-1,2.260697E-4,-5.8827825E-2,1.3233705E-1,1.804407E-1,-1.0329504E-1,1.5785278E-1,-1.3740043E-1,1.8528727E-1,4.364448E-1,5.992744E-1,-9.499641E-2,3.0815685E-2,3.5772705E-1,-1.0530296E-2,1.0625816E-2,-1.255306E-1,5.2908085E-2,1.5417898E-1,-1.20014235E-1,2.1949583E-1,2.7023781E-2,-4.7584376E-4,-8.954598E-3,3.5605542E-2,2.040104E-1,5.0444078E-2,3.2958674E-1,2.1710272E-1,1.7075805E-2,-3.05449E-3,1.9471336E-2,4.5191567E-2,1.9618073E-2,-7.952249E-2,4.8105985E-2,2.261554E-1,8.261204E-4,-7.3350817E-3,1.09963855E-2,-1.1149387E-2,2.5414666E-3,2.1509948E-1,9.783673E-2,-1.5667767E-3,-1.1651007E-2,1.614829E-1,4.2001757E-1,5.128175E-1,-9.4091175E-3,6.1433613E-1,-9.87005E-3,-1.0366431E-2,8.858311E-3,-2.3540687E-3,4.8590514E-1,-6.6332403E-3,1.3447094E-3,-2.675835E-3,1.561656E-2,1.568956E-3,2.2786051E-2,-2.872316E-3,-1.0833327E-2,1.4489668E-2,3.7639143E-4,-1.574257E-3,2.051425E-3,7.1993456E-3,-1.4281253E-3,1.39098335E-2,1.0431655E-3,9.38459E-3,2.3001624E-2,1.593512E-2,9.224194E-3,-5.2757105E-3,5.1131396E-4,-1.1877859E-2,6.3143945E-3,-9.085447E-4,2.0697143E-2,1.00037055E-2,-1.3255662E-2,8.355215E-3,2.4409097E-2,3.4990844E-3,1.8676644E-2,6.6238977E-3,2.0465652E-2,9.532182E-3,6.449262E-2,1.6626775E-2,3.0798897E-2,3.3004984E-2,1.4602521E-2,2.5257519E-2,6.3740644E-3],"categories":[],"categories_nodes":[],"categories_segments":[],"categories_sizes":[],"default_left":[0,0,0,0,0,0,0,0,0,0,0,0,0,0,0,0,0,0,0,0,0,0,0,0,0,0,0,0,0,0,0,0,0,0,0,0,0,0,0,0,0,0,0,0,0,0,0,0,0,0,0,0,0,0,0,0,0,0,0,0,0,0,0,0,0,0,0,0,0,0,0,0,0,0,0,0,0,0,0,0,0,0,0,0,0,0,0,0,0,0,0,0,0,0,0,0,0,0,0,0,0,0,0,0,0,0,0,0,0,0,0,0,0,0,0,0,0,0,0,0,0,0,0,0,0,0,0,0,0,0,0,0,0,0,0],"id":12,"left_children":[1,3,5,7,9,11,13,15,17,19,-1,21,23,25,27,29,31,33,-1,35,37,39,41,43,-1,45,47,49,51,53,55,57,59,61,63,65,67,69,-1,71,73,75,77,79,81,83,85,87,89,-1,91,-1,-1,93,95,97,99,101,-1,103,-1,105,107,-1,109,111,-1,-1,-1,-1,-1,113,115,117,119,-1,-1,-1,-1,121,123,-1,-1,125,127,129,-1,131,-1,-1,-1,-1,133,-1,-1,-1,-1,-1,-1,-1,-1,-1,-1,-1,-1,-1,-1,-1,-1,-1,-1,-1,-1,-1,-1,-1,-1,-1,-1,-1,-1,-1,-1,-1,-1,-1,-1,-1,-1,-1,-1,-1,-1,-1,-1],"loss_changes":[6.165205E1,5.2566977E0,1.6923931E1,5.167553E0,1.679848E0,1.1992981E0,7.2080193E0,4.0152187E0,1.0158184E0,5.014014E-1,0E0,3.1627908E-1,1.1303303E0,6.438511E0,6.7110443E-1,2.5917454E0,1.3597841E0,1.6323195E0,0E0,4.4100547E-1,2.439291E0,3.9046112E-1,2.797808E-1,4.7606206E-1,0E0,1.6225042E0,1.9347496E0,6.416893E-1,1.790312E-1,2.4828587E0,1.6187251E0,4.9410892E-1,9.2953086E-2,2.1758378E-1,9.6357346E-1,1.1894822E-2,4.862144E-1,3.2659054E-1,0E0,2.2733447E-1,1.4787082E-1,2.00196E-1,1.0357213E-1,3.671918E-1,5.3549558E-2,1.1837974E0,1.5276375E0,9.252262E-1,1.8959478E-1,0E0,9.049661E-1,0E0,0E0,1.9533272E0,2.2806568E0,2.1704297E0,1.9316265E-1,4.1504157E-1,0E0,9.013911E-3,0E0,9.45227E-2,3.2028383E-1,0E0,8.024204E-2,8.5771084E-4,0E0,0E0,0E0,0E0,0E0,1.9936055E-1,4.096733E-1,3.2869157E-1,3.709696E-1,0E0,0E0,0E0,0E0,6.655011E-1,4.1159272E-1,0E0,0E0,1.4193769E0,3.7444468E0,2.9731035E-1,0E0,7.806473E-1,0E0,0E0,0E0,0E0,2.5275707E-2,0E0,0E0,0E0,0E0,0E0,0E0,0E0,0E0,0E0,0E0,0E0,0E0,0E0,0E0,0E0,0E0,0E0,0E0,0E0,0E0,0E0,0E0,0E0,0E0,0E0,0E0,0E0,0E0,0E0,0E0,0E0,0E0,0E0,0E0,0E0,0E0,0E0,0E0,0E0,0E0,0E0,0E0],"parents":[2147483647,0,0,1,1,2,2,3,3,4,4,5,5,6,6,7,7,8,8,9,9,11,11,12,12,13,13,14,14,15,15,16,16,17,17,19,19,20,20,21,21,22,22,23,23,25,25,26,26,27,27,28,28,29,29,30,30,31,31,32,32,33,33,34,34,35,35,36,36,37,37,39,39,40,40,41,41,42,42,43,43,44,44,45,45,46,46,47,47,48,48,50,50,53,53,54,54,55,55,56,56,57,57,59,59,61,61,62,62,64,64,65,65,71,71,72,72,73,73,74,74,79,79,80,80,83,83,84,84,85,85,87,87,92,92],"right_children":[2,4,6,8,10,12,14,16,18,20,-1,22,24,26,28,30,32,34,-1,36,38,40,42,44,-1,46,48,50,52,54,56,58,60,62,64,66,68,70,-1,72,74,76,78,80,82,84,86,88,90,-1,92,-1,-1,94,96,98,100,102,-1,104,-1,106,108,-1,110,112,-1,-1,-1,-1,-1,114,116,118,120,-1,-1,-1,-1,122,124,-1,-1,126,128,130,-1,132,-1,-1,-1,-1,134,-1,-1,-1,-1,-1,-1,-1,-1,-1,-1,-1,-1,-1,-1,-1,-1,-1,-1,-1,-1,-1,-1,-1,-1,-1,-1,-1,-1,-1,-1,-1,-1,-1,-1,-1,-1,-1,-1,-1,-1,-1,-1],"split_conditions":[2E0,1E0,1E0,1E0,2.3E1,2.1E1,2E0,1E0,2.3E1,1E0,-8.60532E-3,1E0,2.3E1,3E0,1E0,1E0,2.2E1,1E0,-9.186158E-3,2E0,2.2E1,1E0,2E0,1E0,-1.0405026E-2,1E0,1E0,1E0,2E1,1E0,2.2E1,1E0,2.3E1,2E1,2E1,2.2E1,3E0,2.1E1,2.260697E-4,1E0,2E1,1E0,2E1,2.2E1,2.2E1,1E0,2.3E1,1E0,1E0,3.0815685E-2,2E1,-1.0530296E-2,1.0625816E-2,1E0,1E0,1E0,2.3E1,2.1E1,2.7023781E-2,1E0,-8.954598E-3,2E0,2.2E1,5.0444078E-2,2.2E1,1E0,1.7075805E-2,-3.05449E-3,1.9471336E-2,4.5191567E-2,1.9618073E-2,1E0,2E1,2E0,2E0,-7.3350817E-3,1.09963855E-2,-1.1149387E-2,2.5414666E-3,1E0,3E0,-1.5667767E-3,-1.1651007E-2,1E0,1E0,2E1,-9.4091175E-3,1E0,-9.87005E-3,-1.0366431E-2,8.858311E-3,-2.3540687E-3,3E0,-6.6332403E-3,1.3447094E-3,-2.675835E-3,1.561656E-2,1.568956E-3,2.2786051E-2,-2.872316E-3,-1.0833327E-2,1.4489668E-2,3.7639143E-4,-1.574257E-3,2.051425E-3,7.1993456E-3,-1.4281253E-3,1.39098335E-2,1.0431655E-3,9.38459E-3,2.3001624E-2,1.593512E-2,9.224194E-3,-5.2757105E-3,5.1131396E-4,-1.1877859E-2,6.3143945E-3,-9.085447E-4,2.0697143E-2,1.00037055E-2,-1.3255662E-2,8.355215E-3,2.4409097E-2,3.4990844E-3,1.8676644E-2,6.6238977E-3,2.0465652E-2,9.532182E-3,6.449262E-2,1.6626775E-2,3.0798897E-2,3.3004984E-2,1.4602521E-2,2.5257519E-2,6.3740644E-3],"split_indices":[4,18,30,17,0,0,5,16,0,30,0,17,0,4,10,20,0,30,0,5,0,15,5,14,0,15,15,13,0,19,0,30,0,0,0,0,5,0,0,18,0,5,0,0,0,17,0,29,5,0,0,0,0,21,30,30,0,0,0,30,0,5,0,0,0,4,0,0,0,0,0,16,0,5,5,0,0,0,0,18,4,0,0,16,5,0,0,19,0,0,0,0,4,0,0,0,0,0,0,0,0,0,0,0,0,0,0,0,0,0,0,0,0,0,0,0,0,0,0,0,0,0,0,0,0,0,0,0,0,0,0,0,0,0,0],"split_type":[0,0,0,0,0,0,0,0,0,0,0,0,0,0,0,0,0,0,0,0,0,0,0,0,0,0,0,0,0,0,0,0,0,0,0,0,0,0,0,0,0,0,0,0,0,0,0,0,0,0,0,0,0,0,0,0,0,0,0,0,0,0,0,0,0,0,0,0,0,0,0,0,0,0,0,0,0,0,0,0,0,0,0,0,0,0,0,0,0,0,0,0,0,0,0,0,0,0,0,0,0,0,0,0,0,0,0,0,0,0,0,0,0,0,0,0,0,0,0,0,0,0,0,0,0,0,0,0,0,0,0,0,0,0,0],"sum_hessian":[2.824E3,2.124E3,7E2,2.059E3,6.5E1,2.53E2,4.47E2,2.008E3,5.1E1,5.5E1,1E1,1.27E2,1.26E2,3.22E2,1.25E2,1.964E3,4.4E1,4.6E1,5E0,3.6E1,1.9E1,1.11E2,1.6E1,1.17E2,9E0,2.52E2,7E1,1.23E2,2E0,1.873E3,9.1E1,3.3E1,1.1E1,3.5E1,1.1E1,2.3E1,1.3E1,1E1,9E0,1E2,1.1E1,1.2E1,4E0,1.12E2,5E0,2.23E2,2.9E1,6.6E1,4E0,1.07E2,1.6E1,1E0,1E0,1.792E3,8.1E1,5.8E1,3.3E1,2.7E1,6E0,5E0,6E0,1.2E1,2.3E1,3E0,8E0,1.7E1,6E0,1.1E1,2E0,5E0,5E0,8.4E1,1.6E1,6E0,5E0,1E0,1.1E1,2E0,2E0,5.6E1,5.6E1,3E0,2E0,2.04E2,1.9E1,2.6E1,3E0,6.5E1,1E0,3E0,1E0,4E0,1.2E1,1.712E3,8E1,5.8E1,2.3E1,4.2E1,1.6E1,2.1E1,1.2E1,2E1,7E0,3E0,2E0,4E0,8E0,1.6E1,7E0,5E0,3E0,2E0,1.5E1,6.5E1,1.9E1,3E0,1.3E1,3E0,3E0,3E0,2E0,4.9E1,7E0,5.2E1,4E0,1.84E2,2E1,1.6E1,3E0,1.1E1,1.5E1,5.6E1,9E0,1.1E1,1E0],"tree_param":{"num_deleted":"0","num_feature":"32","num_nodes":"135","size_leaf_vector":"1"}},{"base_weights":[3.356088E-3,-8.313211E-2,2.597706E-1,-8.970269E-2,2.3403633E-1,1.9495805E-1,5.447439E-1,5.0070003E-2,-9.882062E-2,5.5339515E-1,1.5656668E-1,8.522521E-2,2.7667046E-1,4.2878202E-1,6.707857E-1,2.978089E-2,3.936289E-1,-1.04944415E-1,6.848648E-2,3.29581E-2,-4.6743336E-3,8.8490926E-2,3.5096166E-1,2.5941692E-3,1.712215E-1,1.9374897E-1,5.312327E-1,4.5127237E-1,-1.1571177E-2,6.86815E-1,-7.2743506E-3,6.2219426E-3,3.617733E-1,1.7585354E-1,3.126891E-2,-1.10607654E-1,8.745173E-2,1.8724406E-1,-1.2318249E-1,2.2698805E-2,2.0464686E-1,4.214267E-1,-5.3189755E-3,-5.2825004E-2,1.2147937E-1,2.5787175E-1,9.624187E-2,1.5960619E-1,4.507915E-1,5.719743E-1,1.8825633E-2,5.1459485E-1,1.6574863E-1,7.065493E-1,1.1694918E-2,-1.0294429E-2,3.6833772E-1,3.84636E-2,1.9366321E-1,3.9158344E-2,1.8065859E-2,-1.1724869E-1,3.8871434E-2,1.5637292E-1,-8.340175E-3,8.180447E-2,4.528126E-1,1.3604769E-1,-1.1035772E-2,1.0571644E-2,4.6730705E-4,1.2535267E-2,-5.246982E-3,2.7372284E-2,2.3632622E-1,7.651092E-2,-1.3181767E-1,9.515194E-2,2.1162141E-2,1.6459037E-1,4.807883E-1,2.0283698E-1,1.4511096E-2,1.7378621E-1,-1.52400425E-2,2.6533568E-2,-9.056278E-3,5.85193E-1,-1.015521E-2,-1.3631284E-2,1.899313E-1,5.498071E-1,-1.4537806E-2,2.1332899E-1,-6.5345466E-3,7.314082E-1,3.0173522E-1,-1.3556678E-3,1.4287625E-2,-6.022036E-3,2.6032126E-2,-1.4636447E-2,2.2338292E-2,1.7661655E-2,-9.163881E-3,-6.1588013E-3,7.950701E-4,-9.395517E-3,1.9438175E-2,2.4509795E-3,2.0017033E-2,-1.7441878E-4,1.9346006E-2,3.5089683E-2,-1.1029887E-2,2.427099E-2,-8.532978E-3,2.499303E-3,-5.3450605E-3,2.6726087E-3,1.7021244E-2,4.520587E-3,-9.555402E-3,-7.2330455E-3,6.9509386E-3,7.866571E-3,-2.0654711E-3,6.348882E-3,2.9934628E-2,2.6855676E-2,-9.102243E-3,1.2519734E-2,-7.849859E-3,-2.7588564E-3,1.4572504E-2,4.563215E-3,1.38853565E-2,3.0151075E-2,-1.8877685E-3,-5.658189E-4,1.6393429E-2,2.8372183E-2,-9.623298E-3,4.922984E-3,1.657401E-2,8.115515E-3,-5.8459803E-3,3.7327144E-2,1.1515805E-2,2.2604462E-2,2.5401413E-3],"categories":[],"categories_nodes":[],"categories_segments":[],"categories_sizes":[],"default_left":[0,0,0,0,0,0,0,0,0,0,0,0,0,0,0,0,0,0,0,0,0,0,0,0,0,0,0,0,0,0,0,0,0,0,0,0,0,0,0,0,0,0,0,0,0,0,0,0,0,0,0,0,0,0,0,0,0,0,0,0,0,0,0,0,0,0,0,0,0,0,0,0,0,0,0,0,0,0,0,0,0,0,0,0,0,0,0,0,0,0,0,0,0,0,0,0,0,0,0,0,0,0,0,0,0,0,0,0,0,0,0,0,0,0,0,0,0,0,0,0,0,0,0,0,0,0,0,0,0,0,0,0,0,0,0,0,0,0,0,0,0,0,0,0,0,0,0,0,0,0,0],"id":13,"left_children":[1,3,5,7,9,11,13,15,17,19,21,23,25,27,29,31,33,35,37,-1,-1,39,41,43,45,47,49,51,-1,53,-1,55,57,59,-1,61,63,65,67,69,71,73,-1,75,77,79,81,83,85,87,89,91,93,95,-1,97,99,-1,101,103,-1,105,107,109,-1,111,113,115,-1,-1,117,-1,-1,-1,119,121,123,125,-1,127,129,131,133,135,-1,-1,-1,137,-1,-1,139,141,-1,143,145,147,149,-1,-1,-1,-1,-1,-1,-1,-1,-1,-1,-1,-1,-1,-1,-1,-1,-1,-1,-1,-1,-1,-1,-1,-1,-1,-1,-1,-1,-1,-1,-1,-1,-1,-1,-1,-1,-1,-1,-1,-1,-1,-1,-1,-1,-1,-1,-1,-1,-1,-1,-1,-1,-1,-1],"loss_changes":[6.242719E1,4.407774E0,1.3007393E1,2.6341114E0,9.7720313E-1,5.1770115E0,1.627079E0,8.7353134E-1,1.9917488E0,6.089723E-1,4.4535226E-1,1.7689406E0,6.905157E0,1.1586609E0,8.9806557E-1,9.441376E-1,2.433101E-1,2.0461102E0,1.593653E0,0E0,0E0,2.093348E-1,3.3487034E-1,8.497476E-1,7.678163E-1,2.1396408E0,1.6802082E0,1.1622314E0,0E0,3.7101746E-1,0E0,6.856075E-1,3.990574E-1,1.1261132E-1,0E0,1.807291E0,9.7235656E-1,1.16702E0,7.126819E-1,7.962217E-2,1.6889969E-1,5.7233572E-2,0E0,9.0914536E-1,2.854585E-1,1.085329E0,5.8076745E-1,1.5280766E0,1.5599642E0,8.8727E-1,4.0086296E-1,1.7479191E0,1.1615619E-1,3.529129E-1,0E0,5.554588E-1,4.3492305E-1,0E0,9.925312E-1,3.441858E-1,0E0,1.3744221E0,6.262286E0,1.1065776E0,0E0,8.3412343E-1,2.1668103E0,9.4008124E-1,0E0,0E0,1.0104516E-1,0E0,0E0,0E0,7.698825E-2,1.4376256E-1,2.114234E-1,3.3741796E-1,0E0,5.93418E-1,6.951263E-1,5.3558457E-1,7.6875746E-1,1.8441696E0,0E0,0E0,0E0,8.446274E-1,0E0,0E0,1.4250804E-1,8.161373E-1,0E0,1.1665404E-1,9.352904E-2,2.3000336E-1,1.65676E-1,0E0,0E0,0E0,0E0,0E0,0E0,0E0,0E0,0E0,0E0,0E0,0E0,0E0,0E0,0E0,0E0,0E0,0E0,0E0,0E0,0E0,0E0,0E0,0E0,0E0,0E0,0E0,0E0,0E0,0E0,0E0,0E0,0E0,0E0,0E0,0E0,0E0,0E0,0E0,0E0,0E0,0E0,0E0,0E0,0E0,0E0,0E0,0E0,0E0,0E0,0E0,0E0,0E0,0E0],"parents":[2147483647,0,0,1,1,2,2,3,3,4,4,5,5,6,6,7,7,8,8,9,9,10,10,11,11,12,12,13,13,14,14,15,15,16,16,17,17,18,18,21,21,22,22,23,23,24,24,25,25,26,26,27,27,29,29,31,31,32,32,33,33,35,35,36,36,37,37,38,38,39,39,40,40,41,41,43,43,44,44,45,45,46,46,47,47,48,48,49,49,50,50,51,51,52,52,53,53,55,55,56,56,58,58,59,59,61,61,62,62,63,63,65,65,66,66,67,67,70,70,74,74,75,75,76,76,77,77,79,79,80,80,81,81,82,82,83,83,87,87,90,90,91,91,93,93,94,94,95,95,96,96],"right_children":[2,4,6,8,10,12,14,16,18,20,22,24,26,28,30,32,34,36,38,-1,-1,40,42,44,46,48,50,52,-1,54,-1,56,58,60,-1,62,64,66,68,70,72,74,-1,76,78,80,82,84,86,88,90,92,94,96,-1,98,100,-1,102,104,-1,106,108,110,-1,112,114,116,-1,-1,118,-1,-1,-1,120,122,124,126,-1,128,130,132,134,136,-1,-1,-1,138,-1,-1,140,142,-1,144,146,148,150,-1,-1,-1,-1,-1,-1,-1,-1,-1,-1,-1,-1,-1,-1,-1,-1,-1,-1,-1,-1,-1,-1,-1,-1,-1,-1,-1,-1,-1,-1,-1,-1,-1,-1,-1,-1,-1,-1,-1,-1,-1,-1,-1,-1,-1,-1,-1,-1,-1,-1,-1,-1,-1,-1],"split_conditions":[2E0,1E0,3E0,1E0,2E0,1E0,3E0,1E0,1E0,2.2E1,4E0,2.1E1,2E0,1E0,1E0,1E0,1E0,1E0,2.2E1,3.29581E-2,-4.6743336E-3,1E0,2.2E1,4E0,2.2E1,1E0,1E0,2.1E1,-1.1571177E-2,1E0,-7.2743506E-3,1E0,2E0,4E0,3.126891E-2,1E0,2.3E1,1E0,1E0,1E0,2.3E1,2E0,-5.3189755E-3,2E0,1E0,4E0,3E0,1E0,2.3E1,1E0,2E1,1E0,1E0,3E0,1.1694918E-2,1E0,1E0,3.84636E-2,3E0,2E0,1.8065859E-2,1E0,1E0,1E0,-8.340175E-3,2.1E1,2.1E1,2.3E1,-1.1035772E-2,1.0571644E-2,2.1E1,1.2535267E-2,-5.246982E-3,2.7372284E-2,2E1,1E0,1E0,2E0,2.1162141E-2,1E0,1E0,2.3E1,1E0,1E0,-1.52400425E-2,2.6533568E-2,-9.056278E-3,1E0,-1.015521E-2,-1.3631284E-2,2E0,1E0,-1.4537806E-2,2.2E1,2E0,1E0,1E0,-1.3556678E-3,1.4287625E-2,-6.022036E-3,2.6032126E-2,-1.4636447E-2,2.2338292E-2,1.7661655E-2,-9.163881E-3,-6.1588013E-3,7.950701E-4,-9.395517E-3,1.9438175E-2,2.4509795E-3,2.0017033E-2,-1.7441878E-4,1.9346006E-2,3.5089683E-2,-1.1029887E-2,2.427099E-2,-8.532978E-3,2.499303E-3,-5.3450605E-3,2.6726087E-3,1.7021244E-2,4.520587E-3,-9.555402E-3,-7.2330455E-3,6.9509386E-3,7.866571E-3,-2.0654711E-3,6.348882E-3,2.9934628E-2,2.6855676E-2,-9.102243E-3,1.2519734E-2,-7.849859E-3,-2.7588564E-3,1.4572504E-2,4.563215E-3,1.38853565E-2,3.0151075E-2,-1.8877685E-3,-5.658189E-4,1.6393429E-2,2.8372183E-2,-9.623298E-3,4.922984E-3,1.657401E-2,8.115515E-3,-5.8459803E-3,3.7327144E-2,1.1515805E-2,2.2604462E-2,2.5401413E-3],"split_indices":[4,16,4,4,3,30,3,14,21,0,3,0,5,12,26,15,30,18,0,0,0,30,0,3,0,15,12,0,0,21,0,13,3,3,0,12,0,30,30,4,0,5,0,3,20,3,3,27,0,27,0,10,14,5,0,11,30,0,3,3,0,20,30,30,0,0,0,0,0,0,0,0,0,0,0,21,14,5,0,18,22,0,18,5,0,0,0,10,0,0,3,29,0,0,3,15,16,0,0,0,0,0,0,0,0,0,0,0,0,0,0,0,0,0,0,0,0,0,0,0,0,0,0,0,0,0,0,0,0,0,0,0,0,0,0,0,0,0,0,0,0,0,0,0,0,0,0,0,0,0,0],"split_type":[0,0,0,0,0,0,0,0,0,0,0,0,0,0,0,0,0,0,0,0,0,0,0,0,0,0,0,0,0,0,0,0,0,0,0,0,0,0,0,0,0,0,0,0,0,0,0,0,0,0,0,0,0,0,0,0,0,0,0,0,0,0,0,0,0,0,0,0,0,0,0,0,0,0,0,0,0,0,0,0,0,0,0,0,0,0,0,0,0,0,0,0,0,0,0,0,0,0,0,0,0,0,0,0,0,0,0,0,0,0,0,0,0,0,0,0,0,0,0,0,0,0,0,0,0,0,0,0,0,0,0,0,0,0,0,0,0,0,0,0,0,0,0,0,0,0,0,0,0,0,0],"sum_hessian":[2.813E3,2.104E3,7.09E2,2.062E3,4.2E1,5.79E2,1.3E2,1.26E2,1.936E3,7E0,3.5E1,2.48E2,3.31E2,7E1,6E1,1.2E2,6E0,1.868E3,6.8E1,6E0,1E0,2.7E1,8E0,1.27E2,1.21E2,2.51E2,8E1,6.8E1,2E0,5.9E1,1E0,1.13E2,7E0,4E0,2E0,1.815E3,5.3E1,4.2E1,2.6E1,1.8E1,9E0,7E0,1E0,8.7E1,4E1,5.5E1,6.6E1,2.23E2,2.8E1,7.4E1,6E0,5.5E1,1.3E1,5.6E1,3E0,1.09E2,4E0,1E0,6E0,3E0,1E0,1.738E3,7.7E1,4.2E1,1.1E1,3.1E1,1.1E1,7E0,1.9E1,1E0,1.7E1,8E0,1E0,3E0,4E0,3.3E1,5.4E1,3.8E1,2E0,4E1,1.5E1,2.8E1,3.8E1,2.17E2,6E0,2.5E1,3E0,7.3E1,1E0,2E0,4E0,5.3E1,2E0,1E1,3E0,5.2E1,4E0,1.04E2,5E0,1E0,3E0,2E0,4E0,1E0,2E0,1.664E3,7.4E1,4.7E1,3E1,3E1,1.2E1,2.5E1,6E0,8E0,3E0,3E0,4E0,1.2E1,5E0,2E0,2E0,3.2E1,1E0,5.2E1,2E0,2.6E1,1.2E1,3.8E1,2E0,1.4E1,1E0,2.5E1,3E0,3.1E1,7E0,1.22E2,9.5E1,7.1E1,2E0,2E0,2E0,5.2E1,1E0,6E0,4E0,1E0,2E0,5E1,2E0,2E0,2E0],"tree_param":{"num_deleted":"0","num_feature":"32","num_nodes":"151","size_leaf_vector":"1"}},{"base_weights":[3.3667128E-4,-7.8133345E-2,2.2901715E-1,-8.4694035E-2,2.1765538E-1,7.580635E-2,3.2070813E-1,-9.254712E-2,1.5420428E-1,1.1257094E-1,5.060137E-1,-2.7875084E-2,9.593731E-2,3.8610563E-1,1.0882992E-1,-9.933233E-2,1.7922717E-1,2.1271776E-1,-7.885056E-3,1.7812108E-1,-4.6640363E-2,4.8783384E-2,2.4105483E-1,-5.073789E-2,8.258747E-3,1.04468375E-1,-9.41623E-3,3.4786165E-1,7.49309E-1,6.485226E-2,3.576482E-1,-1.06672995E-1,6.910281E-2,2.2191554E-1,-8.184603E-3,1.0365072E-1,4.3721205E-1,1.2059967E-1,2.2497928E-2,2.5461242E-4,-6.922275E-3,1.8712888E-2,-7.5051785E-3,-8.528006E-2,4.077714E-3,8.713955E-2,2.2639364E-1,3.0883947E-1,3.6770765E-2,2.7610863E-2,4.2754862E-2,8.993378E-2,-8.961729E-3,2.0084925E-2,-7.5776638E-3,-1.13094024E-1,2.7691828E-2,1.2682822E-1,-9.409507E-2,4.5351967E-1,1.7341174E-1,5.3603813E-2,1.6238945E-2,6.6712993E-1,3.3211715E-3,3.033214E-3,8.751007E-3,-1.0735285E-1,8.561607E-3,6.6421114E-2,1.7737643E-1,1.2236867E-2,4.8366967E-3,3.31945E-1,-7.765678E-2,1.0763293E-1,-8.052191E-3,-5.9689744E-3,1.1996096E-3,6.0845898E-3,-8.06315E-3,4.280769E-3,1.0671212E-2,9.015811E-3,-1.0413453E-2,2.567727E-2,1.011518E-2,1.2398319E-2,-4.3935725E-4,1.5449138E-2,1.3580283E-3,4.247454E-2,1.8679036E-2,-4.2856853E-3,-1.1599434E-2,1.9033162E-3,8.56075E-3,1.2395197E-2,7.83138E-4,1.7241344E-2,-1.4723829E-2,-9.834901E-3,1.792009E-2,6.082505E-3,-9.455293E-3],"categories":[],"categories_nodes":[],"categories_segments":[],"categories_sizes":[],"default_left":[0,0,0,0,0,0,0,0,0,0,0,0,0,0,0,0,0,0,0,0,0,0,0,0,0,0,0,0,0,0,0,0,0,0,0,0,0,0,0,0,0,0,0,0,0,0,0,0,0,0,0,0,0,0,0,0,0,0,0,0,0,0,0,0,0,0,0,0,0,0,0,0,0,0,0,0,0,0,0,0,0,0,0,0,0,0,0,0,0,0,0,0,0,0,0,0,0,0,0,0,0,0,0,0,0],"id":14,"left_children":[1,3,5,7,9,11,13,15,17,19,21,23,25,27,29,31,33,35,-1,37,39,-1,41,43,-1,45,-1,47,49,51,53,55,57,59,-1,61,63,65,-1,-1,-1,-1,-1,67,-1,69,71,73,-1,-1,-1,75,-1,-1,-1,77,79,81,83,85,87,89,-1,91,-1,-1,-1,93,-1,95,97,-1,-1,99,101,103,-1,-1,-1,-1,-1,-1,-1,-1,-1,-1,-1,-1,-1,-1,-1,-1,-1,-1,-1,-1,-1,-1,-1,-1,-1,-1,-1,-1,-1],"loss_changes":[5.078306E1,4.107234E0,1.0132427E1,3.882763E0,1.3369281E0,5.703945E-1,6.221031E0,3.700369E0,1.2380902E0,3.7357897E-1,1.2580783E0,2.0699556E-1,5.725868E-1,4.531513E0,1.1585898E0,2.417162E0,7.536205E-1,1.3258383E0,0E0,3.366469E-1,5.2947506E-2,0E0,5.251084E-1,1.9431096E-1,0E0,4.493189E-1,0E0,4.521557E0,1.9499779E-1,5.8547163E-1,4.1976666E-1,1.614769E0,7.844285E-1,4.156363E-1,0E0,4.1419512E-1,1.4902036E0,6.114018E-2,0E0,0E0,0E0,0E0,0E0,2.052263E-1,0E0,3.5465348E-1,4.0543437E-2,2.5887432E0,0E0,0E0,0E0,3.9491123E-1,0E0,0E0,0E0,1.5391884E0,1.5471346E0,1.9942862E-1,7.2682816E-1,1.6639233E-3,5.183623E-1,2.1445847E-1,0E0,2.7149773E-1,0E0,0E0,0E0,6.372279E-2,0E0,4.7187912E-1,4.0670657E-1,0E0,0E0,2.2883759E0,9.529492E-1,3.5575986E-1,0E0,0E0,0E0,0E0,0E0,0E0,0E0,0E0,0E0,0E0,0E0,0E0,0E0,0E0,0E0,0E0,0E0,0E0,0E0,0E0,0E0,0E0,0E0,0E0,0E0,0E0,0E0,0E0,0E0],"parents":[2147483647,0,0,1,1,2,2,3,3,4,4,5,5,6,6,7,7,8,8,9,9,10,10,11,11,12,12,13,13,14,14,15,15,16,16,17,17,19,19,20,20,22,22,23,23,25,25,27,27,28,28,29,29,30,30,31,31,32,32,33,33,35,35,36,36,37,37,43,43,45,45,46,46,47,47,51,51,55,55,56,56,57,57,58,58,59,59,60,60,61,61,63,63,67,67,69,69,70,70,73,73,74,74,75,75],"right_children":[2,4,6,8,10,12,14,16,18,20,22,24,26,28,30,32,34,36,-1,38,40,-1,42,44,-1,46,-1,48,50,52,54,56,58,60,-1,62,64,66,-1,-1,-1,-1,-1,68,-1,70,72,74,-1,-1,-1,76,-1,-1,-1,78,80,82,84,86,88,90,-1,92,-1,-1,-1,94,-1,96,98,-1,-1,100,102,104,-1,-1,-1,-1,-1,-1,-1,-1,-1,-1,-1,-1,-1,-1,-1,-1,-1,-1,-1,-1,-1,-1,-1,-1,-1,-1,-1,-1,-1],"split_conditions":[2E0,1E0,1E0,1E0,1E0,2E1,2.2E1,1E0,2.3E1,2.2E1,2E1,1E0,2.3E1,1E0,1E0,1E0,2.3E1,1E0,-7.885056E-3,2.1E1,2.3E1,4.8783384E-2,2.3E1,1E0,8.258747E-3,1E0,-9.41623E-3,1E0,2E1,1E0,2.3E1,1E0,2.2E1,1E0,-8.184603E-3,2.2E1,2.2E1,2E1,2.2497928E-2,2.5461242E-4,-6.922275E-3,1.8712888E-2,-7.5051785E-3,1E0,4.077714E-3,1E0,2.2E1,1E0,3.6770765E-2,2.7610863E-2,4.2754862E-2,1E0,-8.961729E-3,2.0084925E-2,-7.5776638E-3,1E0,2.2E1,1E0,1E0,1E0,2.1E1,1E0,1.6238945E-2,2.1E1,3.3211715E-3,3.033214E-3,8.751007E-3,1E0,8.561607E-3,1E0,2.2E1,1.2236867E-2,4.8366967E-3,1E0,2.1E1,2.3E1,-8.052191E-3,-5.9689744E-3,1.1996096E-3,6.0845898E-3,-8.06315E-3,4.280769E-3,1.0671212E-2,9.015811E-3,-1.0413453E-2,2.567727E-2,1.011518E-2,1.2398319E-2,-4.3935725E-4,1.5449138E-2,1.3580283E-3,4.247454E-2,1.8679036E-2,-4.2856853E-3,-1.1599434E-2,1.9033162E-3,8.56075E-3,1.2395197E-2,7.83138E-4,1.7241344E-2,-1.4723829E-2,-9.834901E-3,1.792009E-2,6.082505E-3,-9.455293E-3],"split_indices":[4,17,30,18,30,0,0,16,0,0,0,14,0,16,14,21,0,30,0,0,0,0,0,16,0,17,0,17,0,11,0,20,0,4,0,0,0,0,0,0,0,0,0,24,0,18,0,10,0,0,0,20,0,0,0,19,0,30,30,30,0,4,0,0,0,0,0,17,0,16,0,0,0,27,0,0,0,0,0,0,0,0,0,0,0,0,0,0,0,0,0,0,0,0,0,0,0,0,0,0,0,0,0,0,0],"split_type":[0,0,0,0,0,0,0,0,0,0,0,0,0,0,0,0,0,0,0,0,0,0,0,0,0,0,0,0,0,0,0,0,0,0,0,0,0,0,0,0,0,0,0,0,0,0,0,0,0,0,0,0,0,0,0,0,0,0,0,0,0,0,0,0,0,0,0,0,0,0,0,0,0,0,0,0,0,0,0,0,0,0,0,0,0,0,0,0,0,0,0,0,0,0,0,0,0,0,0,0,0,0,0,0,0],"sum_hessian":[2.828E3,2.106E3,7.22E2,2.061E3,4.5E1,2.71E2,4.51E2,1.996E3,6.5E1,3.4E1,1.1E1,4.4E1,2.27E2,3.44E2,1.07E2,1.948E3,4.8E1,5.5E1,1E1,2.4E1,1E1,3E0,8E0,4E1,4E0,2.21E2,6E0,3.13E2,3.1E1,9.2E1,1.5E1,1.867E3,8.1E1,4.3E1,5E0,3.8E1,1.7E1,2.1E1,3E0,7E0,3E0,6E0,2E0,3.2E1,8E0,1.95E2,2.6E1,2.86E2,2.7E1,1.3E1,1.8E1,8.4E1,8E0,1.4E1,1E0,1.782E3,8.5E1,6E1,2.1E1,6E0,3.7E1,3.2E1,6E0,1E1,7E0,1.1E1,1E1,3E1,2E0,1.6E2,3.5E1,2.2E1,4E0,2.7E2,1.6E1,7.9E1,5E0,1.704E3,7.8E1,5.7E1,